/*
 *  Copyright (c) [2024] [Embedded Systems Laboratory (ESL), EPFL]
 *
 *  Licensed under the Apache License, Version 2.0 (the "License");
 *  you may not use this file except in compliance with the License.
 *  You may obtain a copy of the License at
 *
 *      http://www.apache.org/licenses/LICENSE-2.0
 *
 *  Unless required by applicable law or agreed to in writing, software
 *  distributed under the License is distributed on an "AS IS" BASIS,
 *  WITHOUT WARRANTIES OR CONDITIONS OF ANY KIND, either express or implied.
 *  See the License for the specific language governing permissions and
 *  limitations under the License.
 */


//////////////////////////////////////////
// Author:  Dimitrios Samakovlis        //
// Date:    February 2024               //
//////////////////////////////////////////


#ifndef _LAYER_4_H_
#define _LAYER_4_H_

#include "defines.h"

 my_type weights_l4[] = {0.000000000000124, -0.000000000004233, -0.000000000002235, -0.000000000000667, -0.000000000006024, -0.000000000004779, -0.000000000003689, 0.000000000000189, -0.000000000002733, -0.000000000000883, 0.000000000002141, -0.000000000006896, -0.000000000003367, -0.000000000006706, -0.000000000015160, -0.000000000004176, 0.000000000001492, -0.000000000001849, -0.000000000002263, 0.000000000001940, 0.000000000000128, -0.000000000002929, 0.000000000001612, 0.000000000001544, 0.000000000002343, -0.000000000003702, 0.000000000002172, -0.000000000000694, -0.000000000000272, 0.000000000001899, -0.000000000000164, -0.000000000000948, 0.000000000000593, 0.000000000000431, -0.000000000004024, -0.000000000001881, -0.000000000003169, -0.000000000000425, -0.000000000002666, -0.000000000003170, 0.000000000000572, 0.000000000002197, 0.000000000000693, -0.000000000000198, 0.000000000001667, -0.000000000000942, -0.000000000000283, 0.000000000000285, -0.000000000002016, -0.000000000000329, -0.000000000008109, -0.000000000002720, -0.000000000004024, -0.000000000000935, -0.000000000011486, -0.000000000000452, 0.000000000001833, -0.000000000009599, 0.000000000002006, -0.000000000000610, 0.000000000003587, -0.000000000007207, -0.000000000008306, 0.000000000002603, -0.000000000001324, -0.000000000001260, 0.000000000000238, 0.000000000000295, -0.000000000000418, -0.000000000002301, 0.000000000000206, -0.000000000000912, -0.000000000002342, -0.000000000004862, -0.000000000002931, -0.000000000002517, -0.000000000003174, -0.000000000004981, -0.000000000004759, -0.000000000003517, 0.000000000000927, -0.000000000001118, 0.000000000000244, 0.000000000000441, -0.000000000001061, -0.000000000002849, 0.000000000000321, -0.000000000006330, -0.000000000004659, 0.000000000000036, -0.000000000002361, 0.000000000000945, 0.000000000001045, 0.000000000000418, 0.000000000000809, 0.000000000000054, -0.000000000005451, -0.000000000004266, -0.000000000002179, -0.000000000003379, -0.000000000012484, -0.000000000002816, -0.000000000000796, -0.000000000008170, -0.000000000001032, -0.000000000015360, -0.000000000009510, 0.000000000001064, -0.000000000008276, 0.000000000003228, -0.000000000004402, -0.000000000002012, -0.000000000010275, 0.000000000001574, -0.000000000009755, -0.000000000002497, -0.000000000019123, -0.000000000000495, -0.000000000013255, -0.000000000000419, -0.000000000000686, -0.000000000004047, -0.000000000005909, 0.000000000006119, 0.000000000000329, 0.000000000000099, -0.000000000015300, -0.000000000008167, -0.000000000004208, -0.000000000005412, -0.000000000003205, -0.000000000004030, -0.000000000003284, -0.000000000004760, -0.000000000006623, 0.000000000000726, -0.000000000002817, 0.000000000005630, -0.000000000002865, -0.000000000006453, 0.000000000002771, 0.000000000003104, -0.000000000003336, -0.000000000002383, 0.000000000000000, 0.000000000000000, 0.000000000000000, 0.000000000000000, 0.000000000000000, 0.000000000000000, 0.000000000000000, 0.000000000000000, 0.000000000000000, 0.000000000000000, 0.000000000000000, 0.000000000000000, 0.000000000000000, 0.000000000000000, 0.000000000000000, 0.000000000000000, -0.000000000011267, -0.000000000001236, 0.000000000001088, 0.000000000001071, 0.000000000000358, -0.000000000005514, -0.000000000008027, -0.000000000000518, -0.000000000002233, 0.000000000004803, 0.000000000002108, 0.000000000002962, 0.000000000001091, 0.000000000002969, 0.000000000003101, 0.000000000002416, -0.000000000000000, -0.000000000000000, -0.000000000000000, -0.000000000000000, -0.000000000000000, -0.000000000000000, -0.000000000000000, -0.000000000000000, -0.000000000000000, -0.000000000000000, -0.000000000000000, -0.000000000000000, -0.000000000000000, -0.000000000000000, -0.000000000000000, -0.000000000000000, 0.000000000003055, -0.000000000007468, -0.000000000003203, -0.000000000000689, -0.000000000000847, -0.000000000000920, -0.000000000007100, -0.000000000006754, -0.000000000007041, 0.000000000002622, 0.000000000003143, -0.000000000000618, 0.000000000001841, 0.000000000003497, 0.000000000000448, -0.000000000002427, -0.000000000000000, -0.000000000000000, -0.000000000000000, -0.000000000000000, -0.000000000000000, -0.000000000000000, -0.000000000000000, -0.000000000000000, -0.000000000000000, -0.000000000000000, -0.000000000000000, -0.000000000000000, -0.000000000000000, -0.000000000000000, -0.000000000000000, -0.000000000000000, 0.000000000000000, 0.000000000000000, 0.000000000000000, 0.000000000000000, 0.000000000000000, 0.000000000000000, 0.000000000000000, 0.000000000000000, 0.000000000000000, 0.000000000000000, 0.000000000000000, 0.000000000000000, 0.000000000000000, 0.000000000000000, 0.000000000000000, 0.000000000000000, -0.000000000003935, 0.000000000002357, 0.000000000005965, -0.000000000002832, 0.000000000000250, -0.000000000010329, 0.000000000001587, -0.000000000003830, -0.000000000004514, -0.000000000004814, -0.000000000001749, -0.000000000001508, -0.000000000006259, 0.000000000000762, -0.000000000004128, 0.000000000001003, -0.000000000006025, -0.000000000004744, -0.000000000004310, -0.000000000005720, -0.000000000003628, 0.000000000000294, -0.000000000006539, -0.000000000005402, -0.000000000000328, -0.000000000000792, 0.000000000005167, 0.000000000000214, 0.000000000002249, -0.000000000004888, 0.000000000003676, 0.000000000005181, -0.000000000003359, -0.000000000000345, 0.000000000003032, -0.000000000001464, -0.000000000011047, -0.000000000004818, -0.000000000003100, 0.000000000000453, -0.000000000012300, -0.000000000001793, -0.000000000001588, 0.000000000001342, -0.000000000002231, -0.000000000001927, -0.000000000002539, 0.000000000003587, 0.000000000000589, -0.000000000002285, 0.000000000000062, -0.000000000006259, -0.000000000001546, -0.000000000010107, 0.000000000000825, -0.000000000004912, -0.000000000001735, 0.000000000000763, -0.000000000003837, -0.000000000002081, -0.000000000002073, -0.000000000002504, -0.000000000006381, -0.000000000003010, -0.000000000003037, -0.000000000003337, -0.000000000001271, 0.000000000002109, -0.000000000003196, -0.000000000001485, -0.000000000013548, 0.000000000001671, -0.000000000003674, -0.000000000002413, 0.000000000000217, 0.000000000003926, -0.000000000001339, 0.000000000002940, 0.000000000002269, 0.000000000003434, -0.000000000007335, 0.000000000000259, 0.000000000000690, 0.000000000001497, 0.000000000000938, -0.000000000002013, -0.000000000002545, -0.000000000000603, 0.000000000002478, -0.000000000006920, -0.000000000001336, 0.000000000000128, -0.000000000002271, -0.000000000000457, 0.000000000000887, 0.000000000000764, -0.000000000000000, -0.000000000000000, -0.000000000000000, -0.000000000000000, -0.000000000000000, -0.000000000000000, -0.000000000000000, -0.000000000000000, -0.000000000000000, -0.000000000000000, -0.000000000000000, -0.000000000000000, -0.000000000000000, -0.000000000000000, -0.000000000000000, -0.000000000000000, -0.000000000003385, -0.000000000007042, -0.000000000002724, -0.000000000002662, -0.000000000000111, -0.000000000005366, 0.000000000001102, -0.000000000010628, -0.000000000006180, -0.000000000009660, -0.000000000006501, 0.000000000003907, 0.000000000000529, 0.000000000004006, -0.000000000006491, -0.000000000000933, 0.000000000002237, 0.000000000000271, -0.000000000003319, -0.000000000003973, -0.000000000011608, -0.000000000002336, -0.000000000002620, -0.000000000005520, 0.000000000001606, -0.000000000013622, -0.000000000002405, -0.000000000002904, 0.000000000001675, -0.000000000003803, -0.000000000000072, 0.000000000001418, -0.000000000007624, -0.000000000003017, -0.000000000000004, -0.000000000004765, -0.000000000005337, -0.000000000003749, 0.000000000002212, -0.000000000005276, 0.000000000003491, -0.000000000002802, -0.000000000002397, -0.000000000002896, -0.000000000002119, 0.000000000002875, -0.000000000002094, 0.000000000001025, -0.000000000004174, -0.000000000002786, -0.000000000001336, 0.000000000001890, -0.000000000003175, 0.000000000000868, -0.000000000000941, -0.000000000000847, 0.000000000000248, -0.000000000002167, -0.000000000000881, 0.000000000002256, -0.000000000000050, 0.000000000002095, 0.000000000001881, 0.000000000000427, -0.000000000000000, -0.000000000000000, -0.000000000000000, -0.000000000000000, -0.000000000000000, -0.000000000000000, -0.000000000000000, -0.000000000000000, -0.000000000000000, -0.000000000000000, -0.000000000000000, -0.000000000000000, -0.000000000000000, -0.000000000000000, -0.000000000000000, -0.000000000000000, -0.000000000001236, 0.000000000000026, 0.000000000001357, -0.000000000002337, 0.000000000000203, -0.000000000002611, 0.000000000000174, -0.000000000000633, -0.000000000000450, -0.000000000003850, -0.000000000000095, 0.000000000000463, -0.000000000000791, -0.000000000000687, 0.000000000001524, 0.000000000000989, -0.000000000001911, 0.000000000000364, -0.000000000000928, 0.000000000000339, -0.000000000000888, -0.000000000001035, 0.000000000000707, 0.000000000000382, -0.000000000001035, 0.000000000000273, -0.000000000002686, 0.000000000000875, -0.000000000001472, 0.000000000000956, 0.000000000000952, -0.000000000000759, -0.000000000012012, -0.000000000003701, -0.000000000004052, -0.000000000004024, -0.000000000007311, -0.000000000005596, -0.000000000003211, -0.000000000002517, -0.000000000005844, 0.000000000001086, 0.000000000002135, -0.000000000012945, 0.000000000001142, -0.000000000004833, -0.000000000001375, 0.000000000003786, -0.000000000003094, 0.000000000001234, -0.000000000000130, -0.000000000003783, -0.000000000005258, 0.000000000000906, 0.000000000000225, 0.000000000001524, -0.000000000000120, 0.000000000001811, -0.000000000003227, -0.000000000003005, 0.000000000000149, 0.000000000001498, 0.000000000001566, -0.000000000000102, 0.000000000000000, 0.000000000000000, 0.000000000000000, 0.000000000000000, 0.000000000000000, 0.000000000000000, 0.000000000000000, 0.000000000000000, 0.000000000000000, 0.000000000000000, 0.000000000000000, 0.000000000000000, 0.000000000000000, 0.000000000000000, 0.000000000000000, 0.000000000000000, 0.000000000000000, 0.000000000000000, 0.000000000000000, 0.000000000000000, 0.000000000000000, 0.000000000000000, 0.000000000000000, 0.000000000000000, 0.000000000000000, 0.000000000000000, 0.000000000000000, 0.000000000000000, 0.000000000000000, 0.000000000000000, 0.000000000000000, 0.000000000000000, 0.000000000000000, 0.000000000000000, 0.000000000000000, -0.000000000000000, -0.000000000000000, -0.000000000000000, -0.000000000000000, -0.000000000000000, -0.000000000000000, -0.000000000000000, 0.000000000000000, 0.000000000000000, 0.000000000000000, -0.000000000000000, -0.000000000000000, -0.000000000000000, 0.000000000002019, -0.000000000002025, -0.000000000003643, -0.000000000006165, -0.000000000010040, -0.000000000004750, -0.000000000010547, -0.000000000002863, -0.000000000004488, 0.000000000003428, -0.000000000002451, -0.000000000011785, 0.000000000005372, 0.000000000000431, -0.000000000006580, -0.000000000002382, 0.000000000000000, 0.000000000000000, 0.000000000000000, 0.000000000000000, 0.000000000000000, 0.000000000000000, 0.000000000000000, 0.000000000000000, 0.000000000000000, 0.000000000000000, 0.000000000000000, 0.000000000000000, 0.000000000000000, 0.000000000000000, 0.000000000000000, 0.000000000000000, 0.000000000002610, -0.000000000000520, -0.000000000005398, 0.000000000000563, 0.000000000001969, 0.000000000002510, -0.000000000005450, -0.000000000005473, 0.000000000001393, 0.000000000002984, -0.000000000002896, -0.000000000003707, 0.000000000003003, -0.000000000008895, -0.000000000006240, -0.000000000001625, -0.000000000001397, 0.000000000003797, -0.000000000007280, -0.000000000000231, -0.000000000005365, 0.000000000003339, -0.000000000002053, -0.000000000005648, 0.000000000002954, -0.000000000003681, 0.000000000002902, 0.000000000004186, -0.000000000000973, 0.000000000000552, 0.000000000003664, 0.000000000002658, 0.000000000000947, -0.000000000000851, -0.000000000009704, -0.000000000005739, 0.000000000000774, -0.000000000008934, -0.000000000001577, 0.000000000000263, -0.000000000000495, 0.000000000000378, -0.000000000004447, -0.000000000000665, -0.000000000000386, 0.000000000003881, 0.000000000002938, 0.000000000003546, -0.000000000005918, -0.000000000001178, 0.000000000000958, -0.000000000000710, -0.000000000005479, -0.000000000000482, -0.000000000005594, -0.000000000002945, -0.000000000002754, -0.000000000014461, 0.000000000002748, -0.000000000003765, 0.000000000002725, -0.000000000009203, -0.000000000005464, -0.000000000000921, 0.000000000000000, 0.000000000000000, 0.000000000000000, 0.000000000000000, 0.000000000000000, 0.000000000000000, 0.000000000000000, 0.000000000000000, 0.000000000000000, 0.000000000000000, 0.000000000000000, 0.000000000000000, 0.000000000000000, 0.000000000000000, 0.000000000000000, 0.000000000000000, 0.000000000000343, 0.000000000000149, -0.000000000000672, -0.000000000000580, -0.000000000000270, -0.000000000000526, -0.000000000000414, -0.000000000001804, -0.000000000002771, 0.000000000000055, -0.000000000002258, 0.000000000000162, -0.000000000000168, -0.000000000000235, -0.000000000000119, -0.000000000002819, -0.000000000000000, -0.000000000000000, -0.000000000000000, -0.000000000000000, -0.000000000000000, -0.000000000000000, -0.000000000000000, -0.000000000000000, -0.000000000000000, -0.000000000000000, -0.000000000000000, -0.000000000000000, -0.000000000000000, -0.000000000000000, -0.000000000000000, -0.000000000000000, 0.000000000000437, -0.000000000000945, -0.000000000001060, -0.000000000003355, -0.000000000003358, 0.000000000000195, -0.000000000001978, 0.000000000000602, -0.000000000004195, -0.000000000002216, -0.000000000006179, -0.000000000002005, 0.000000000001341, -0.000000000002406, -0.000000000002086, -0.000000000002812, -0.000000000000000, -0.000000000000000, -0.000000000000000, -0.000000000000000, -0.000000000000000, -0.000000000000000, -0.000000000000000, -0.000000000000000, -0.000000000000000, -0.000000000000000, -0.000000000000000, -0.000000000000000, -0.000000000000000, -0.000000000000000, -0.000000000000000, -0.000000000000000, -0.000000000000000, -0.000000000000000, -0.000000000000000, -0.000000000000000, -0.000000000000000, -0.000000000000000, -0.000000000000000, -0.000000000000000, -0.000000000000000, -0.000000000000000, -0.000000000000000, -0.000000000000000, -0.000000000000000, -0.000000000000000, -0.000000000000000, -0.000000000000000, -0.000000000004969, -0.000000000002786, 0.000000000000294, -0.000000000003996, -0.000000000006642, 0.000000000002580, -0.000000000005767, -0.000000000002905, -0.000000000010202, -0.000000000001266, 0.000000000003497, 0.000000000003054, 0.000000000000887, 0.000000000003119, -0.000000000003290, 0.000000000002535, 0.000000000000340, 0.000000000000878, 0.000000000000696, -0.000000000000867, -0.000000000000949, -0.000000000000443, 0.000000000001109, 0.000000000000445, -0.000000000000062, -0.000000000001408, 0.000000000000174, 0.000000000000692, -0.000000000000880, -0.000000000000105, 0.000000000000527, 0.000000000000185, -0.000000000001779, -0.000000000005831, -0.000000000000595, -0.000000000003526, -0.000000000004693, 0.000000000003808, -0.000000000009019, -0.000000000005042, 0.000000000000193, -0.000000000003991, -0.000000000004611, -0.000000000002033, 0.000000000000699, 0.000000000000921, -0.000000000002821, 0.000000000004611, -0.000000000000000, -0.000000000000000, -0.000000000000000, -0.000000000000000, -0.000000000000000, -0.000000000000000, -0.000000000000000, -0.000000000000000, -0.000000000000000, -0.000000000000000, -0.000000000000000, -0.000000000000000, -0.000000000000000, -0.000000000000000, -0.000000000000000, -0.000000000000000, -0.000000000000002, 0.000000000000006, 0.000000000000005, 0.000000000000009, 0.000000000000014, 0.000000000000003, 0.000000000000017, -0.000000000000033, -0.000000000000017, -0.000000000000037, -0.000000000000039, -0.000000000000031, -0.000000000000022, -0.000000000000030, -0.000000000000003, -0.000000000000008, 0.000000000000029, -0.000000000000008, -0.000000000000051, 0.000000000000062, -0.000000000000050, -0.000000000000013, -0.000000000000008, -0.000000000000197, -0.000000000000015, -0.000000000000154, 0.000000000000021, -0.000000000000109, 0.000000000000090, -0.000000000000012, 0.000000000000038, 0.000000000000025, -0.000000000000499, 0.000000000001255, 0.000000000001774, 0.000000000000300, -0.000000000001844, -0.000000000002056, 0.000000000001135, -0.000000000001132, -0.000000000003107, -0.000000000006594, -0.000000000002996, 0.000000000000673, 0.000000000000156, -0.000000000001062, 0.000000000000471, -0.000000000000772, 0.000000000000000, 0.000000000000000, 0.000000000000000, 0.000000000000000, 0.000000000000000, 0.000000000000000, 0.000000000000000, 0.000000000000000, 0.000000000000000, 0.000000000000000, 0.000000000000000, 0.000000000000000, 0.000000000000000, 0.000000000000000, 0.000000000000000, 0.000000000000000, -0.000000000004675, -0.000000000003187, -0.000000000011473, 0.000000000000599, -0.000000000004083, -0.000000000000914, -0.000000000008067, -0.000000000005784, -0.000000000004223, -0.000000000000113, 0.000000000003267, -0.000000000004388, -0.000000000003355, -0.000000000005107, 0.000000000000054, 0.000000000001311, 0.000000000000000, 0.000000000000000, 0.000000000000000, 0.000000000000000, 0.000000000000000, 0.000000000000000, 0.000000000000000, 0.000000000000000, 0.000000000000000, 0.000000000000000, 0.000000000000000, 0.000000000000000, 0.000000000000000, 0.000000000000000, 0.000000000000000, 0.000000000000000, -0.000000000002742, -0.000000000006800, -0.000000000006512, -0.000000000006995, -0.000000000004667, -0.000000000001140, -0.000000000009174, -0.000000000000223, 0.000000000001292, 0.000000000004432, 0.000000000003917, -0.000000000003217, 0.000000000004550, -0.000000000005725, -0.000000000009605, -0.000000000000462, -0.000000000006240, -0.000000000002234, -0.000000000005428, 0.000000000000825, -0.000000000011635, -0.000000000006936, -0.000000000008611, -0.000000000007434, 0.000000000002772, -0.000000000011014, 0.000000000000546, 0.000000000001018, -0.000000000001832, -0.000000000002944, -0.000000000002808, -0.000000000004767, -0.000000000000000, -0.000000000000000, -0.000000000000000, -0.000000000000000, -0.000000000000000, -0.000000000000000, -0.000000000000000, -0.000000000000000, -0.000000000000000, -0.000000000000000, -0.000000000000000, -0.000000000000000, -0.000000000000000, -0.000000000000000, -0.000000000000000, -0.000000000000000, 0.000000000000000, 0.000000000000000, 0.000000000000000, 0.000000000000000, 0.000000000000000, 0.000000000000000, 0.000000000000000, 0.000000000000000, 0.000000000000000, 0.000000000000000, 0.000000000000000, 0.000000000000000, 0.000000000000000, 0.000000000000000, 0.000000000000000, 0.000000000000000, 0.000000000000000, 0.000000000000000, 0.000000000000000, 0.000000000000000, 0.000000000000000, 0.000000000000000, 0.000000000000000, 0.000000000000000, 0.000000000000000, 0.000000000000000, 0.000000000000000, 0.000000000000000, 0.000000000000000, 0.000000000000000, 0.000000000000000, 0.000000000000000, -0.000000000006070, -0.000000000005044, -0.000000000005701, -0.000000000000166, -0.000000000006823, -0.000000000003433, -0.000000000000229, -0.000000000003503, -0.000000000000489, -0.000000000001758, 0.000000000003273, -0.000000000001798, 0.000000000001914, -0.000000000001118, -0.000000000001101, 0.000000000001473, 0.000000000000286, -0.000000000005553, -0.000000000000846, 0.000000000000490, -0.000000000000740, -0.000000000008515, -0.000000000006802, -0.000000000001691, -0.000000000006602, -0.000000000000227, 0.000000000002482, -0.000000000006829, -0.000000000001935, -0.000000000004709, 0.000000000000331, -0.000000000000995, -0.000000000002311, -0.000000000002467, -0.000000000002220, 0.000000000003101, -0.000000000000324, -0.000000000003790, -0.000000000002097, -0.000000000005084, -0.000000000005247, -0.000000000005807, -0.000000000008723, -0.000000000003793, -0.000000000003896, -0.000000000003062, -0.000000000008434, -0.000000000001017, 0.000000000000940, -0.000000000000825, -0.000000000000789, 0.000000000000029, -0.000000000008388, -0.000000000004092, -0.000000000003514, 0.000000000000699, -0.000000000002552, -0.000000000000342, 0.000000000002613, 0.000000000003894, 0.000000000000400, -0.000000000003091, 0.000000000004641, 0.000000000001451, -0.000000000000000, -0.000000000000000, -0.000000000000000, -0.000000000000000, -0.000000000000000, -0.000000000000000, -0.000000000000000, -0.000000000000000, -0.000000000000000, -0.000000000000000, -0.000000000000000, -0.000000000000000, -0.000000000000000, -0.000000000000000, -0.000000000000000, -0.000000000000000, 0.000000000000000, 0.000000000000000, 0.000000000000000, 0.000000000000000, 0.000000000000000, 0.000000000000000, 0.000000000000000, 0.000000000000000, 0.000000000000000, 0.000000000000000, 0.000000000000000, 0.000000000000000, 0.000000000000000, 0.000000000000000, 0.000000000000000, 0.000000000000000, -0.000000000005406, -0.000000000002523, -0.000000000009039, 0.000000000005197, -0.000000000006868, -0.000000000003316, -0.000000000006438, 0.000000000000261, -0.000000000005212, 0.000000000002835, -0.000000000004469, 0.000000000005835, 0.000000000001068, -0.000000000003047, -0.000000000006472, 0.000000000001176, -0.000000000001694, -0.000000000003818, 0.000000000000323, -0.000000000007744, 0.000000000000121, -0.000000000005607, -0.000000000017289, -0.000000000012241, -0.000000000006690, -0.000000000010303, -0.000000000003998, -0.000000000003682, 0.000000000001236, -0.000000000007561, -0.000000000003604, -0.000000000006195, -0.000000000004887, 0.000000000000062, -0.000000000004785, -0.000000000007975, -0.000000000004668, -0.000000000000196, -0.000000000005418, -0.000000000000370, -0.000000000000637, -0.000000000003711, -0.000000000003892, -0.000000000003286, 0.000000000001851, -0.000000000002701, -0.000000000009595, -0.000000000008279, -0.000000000004373, 0.000000000000180, -0.000000000002662, -0.000000000004092, -0.000000000003552, -0.000000000000976, -0.000000000004645, -0.000000000002221, 0.000000000000851, -0.000000000010261, 0.000000000002590, -0.000000000011541, 0.000000000002579, -0.000000000002990, 0.000000000000538, 0.000000000001980, -0.000000000000169, 0.000000000001431, -0.000000000001396, -0.000000000005917, -0.000000000000329, -0.000000000003786, -0.000000000003138, -0.000000000003773, -0.000000000007479, -0.000000000011752, 0.000000000001775, -0.000000000006172, -0.000000000000314, -0.000000000003876, -0.000000000005521, -0.000000000003172, -0.000000000002360, -0.000000000005508, -0.000000000000929, -0.000000000001432, -0.000000000006945, 0.000000000003769, -0.000000000008684, -0.000000000001891, -0.000000000002493, 0.000000000004677, -0.000000000008164, 0.000000000002578, 0.000000000000557, -0.000000000003457, -0.000000000003026, 0.000000000001667, -0.000000000012017, 0.000000000002105, -0.000000000004854, -0.000000000005702, -0.000000000002310, -0.000000000002976, -0.000000000004012, -0.000000000004469, -0.000000000001303, -0.000000000005611, -0.000000000002738, 0.000000000001786, -0.000000000001636, -0.000000000004223, -0.000000000006442, -0.000000000002697, -0.000000000002064, -0.000000000001233, 0.000000000000334, 0.000000000000662, -0.000000000000767, -0.000000000002454, -0.000000000003569, 0.000000000000645, -0.000000000002543, -0.000000000000232, 0.000000000000661, 0.000000000001415, 0.000000000000540, -0.000000000001212, -0.000000000002797, -0.000000000001419, -0.000000000002703, -0.000000000000106, -0.000000000000905, -0.000000000002812, -0.000000000006511, -0.000000000004733, -0.000000000001041, -0.000000000006450, -0.000000000000977, -0.000000000003035, -0.000000000007642, -0.000000000001226, 0.000000000000897, 0.000000000000344, -0.000000000002110, 0.000000000000705, -0.000000000000000, -0.000000000000000, -0.000000000000000, -0.000000000000000, -0.000000000000000, -0.000000000000000, -0.000000000000000, -0.000000000000000, -0.000000000000000, -0.000000000000000, -0.000000000000000, -0.000000000000000, -0.000000000000000, -0.000000000000000, -0.000000000000000, -0.000000000000000, -0.000000000000000, -0.000000000000000, -0.000000000000000, -0.000000000000000, -0.000000000000000, -0.000000000000000, -0.000000000000000, -0.000000000000000, -0.000000000000000, -0.000000000000000, -0.000000000000000, -0.000000000000000, -0.000000000000000, -0.000000000000000, -0.000000000000000, -0.000000000000000, 0.000000000000000, 0.000000000000000, 0.000000000000000, 0.000000000000000, 0.000000000000000, 0.000000000000000, 0.000000000000000, 0.000000000000000, 0.000000000000000, 0.000000000000000, 0.000000000000000, 0.000000000000000, 0.000000000000000, 0.000000000000000, 0.000000000000000, 0.000000000000000, -0.000000000008147, -0.000000000013259, -0.000000000000713, 0.000000000000014, 0.000000000001016, -0.000000000011137, -0.000000000005620, -0.000000000006914, -0.000000000008278, -0.000000000010219, -0.000000000005177, -0.000000000006633, -0.000000000004152, 0.000000000004565, -0.000000000017762, -0.000000000011967, -0.000000000005617, 0.000000000001592, -0.000000000007652, -0.000000000000407, -0.000000000011510, -0.000000000004679, -0.000000000011496, -0.000000000002882, -0.000000000000896, -0.000000000001526, 0.000000000002389, -0.000000000005446, -0.000000000002489, -0.000000000009644, -0.000000000004560, 0.000000000003540, -0.000000000003218, -0.000000000000607, 0.000000000000174, -0.000000000002319, -0.000000000005407, -0.000000000000101, -0.000000000002416, 0.000000000000824, 0.000000000001436, -0.000000000003455, 0.000000000001078, 0.000000000000329, 0.000000000000088, -0.000000000000489, -0.000000000002046, 0.000000000000412, -0.000000000002721, -0.000000000004350, -0.000000000006536, -0.000000000001972, -0.000000000001804, -0.000000000001037, -0.000000000010927, 0.000000000004233, 0.000000000001198, -0.000000000004010, 0.000000000002575, -0.000000000005759, 0.000000000002036, -0.000000000005905, -0.000000000007550, 0.000000000001421, 0.000000000000000, 0.000000000000000, 0.000000000000000, 0.000000000000000, 0.000000000000000, 0.000000000000000, 0.000000000000000, 0.000000000000000, 0.000000000000000, 0.000000000000000, 0.000000000000000, 0.000000000000000, 0.000000000000000, 0.000000000000000, 0.000000000000000, 0.000000000000000, -0.000000000001970, 0.000000000000896, -0.000000000001482, 0.000000000000047, -0.000000000002770, -0.000000000000108, -0.000000000004928, 0.000000000000240, 0.000000000000563, -0.000000000001007, -0.000000000001251, -0.000000000002339, -0.000000000000958, 0.000000000000870, -0.000000000000203, 0.000000000001634, -0.000000000000000, -0.000000000000000, -0.000000000000000, -0.000000000000000, -0.000000000000000, -0.000000000000000, -0.000000000000000, -0.000000000000000, -0.000000000000000, -0.000000000000000, -0.000000000000000, -0.000000000000000, -0.000000000000000, -0.000000000000000, -0.000000000000000, -0.000000000000000, -0.000000000000000, -0.000000000000000, -0.000000000000000, -0.000000000000000, -0.000000000000000, -0.000000000000000, -0.000000000000000, -0.000000000000000, -0.000000000000000, -0.000000000000000, -0.000000000000000, -0.000000000000000, -0.000000000000000, -0.000000000000000, -0.000000000000000, -0.000000000000000, -0.000000000000350, -0.000000000003471, -0.000000000004999, 0.000000000003833, 0.000000000000035, -0.000000000010722, -0.000000000004377, -0.000000000005202, -0.000000000002788, -0.000000000004482, 0.000000000002351, 0.000000000003797, -0.000000000001936, 0.000000000003324, -0.000000000005166, -0.000000000002400, -0.000000000007984, 0.000000000002479, 0.000000000000896, -0.000000000017997, -0.000000000003216, -0.000000000010247, -0.000000000007800, -0.000000000001179, -0.000000000007493, 0.000000000000622, 0.000000000001655, 0.000000000002071, -0.000000000003815, -0.000000000004619, -0.000000000005345, -0.000000000005658, -0.000000000003045, -0.000000000002822, -0.000000000006972, -0.000000000006546, -0.000000000001666, -0.000000000006283, -0.000000000007142, -0.000000000000296, -0.000000000005022, 0.000000000001850, -0.000000000004977, 0.000000000002511, -0.000000000005275, -0.000000000003022, -0.000000000006403, -0.000000000002528, -0.000000000000000, -0.000000000000000, -0.000000000000000, -0.000000000000000, -0.000000000000000, -0.000000000000000, -0.000000000000000, -0.000000000000000, -0.000000000000000, -0.000000000000000, -0.000000000000000, -0.000000000000000, -0.000000000000000, -0.000000000000000, -0.000000000000000, -0.000000000000000, -0.000000000000634, -0.000000000005351, -0.000000000004105, -0.000000000005639, -0.000000000001374, -0.000000000005736, -0.000000000009722, -0.000000000001664, -0.000000000004964, -0.000000000001497, 0.000000000003762, -0.000000000005579, 0.000000000001108, 0.000000000001557, -0.000000000001931, 0.000000000001774, -0.000000000003098, 0.000000000000766, -0.000000000002941, -0.000000000004447, -0.000000000004246, -0.000000000003485, -0.000000000001389, -0.000000000001348, 0.000000000000123, -0.000000000003252, 0.000000000001939, -0.000000000002306, -0.000000000000320, 0.000000000000296, 0.000000000000324, -0.000000000001331, 0.000000000000000, 0.000000000000000, 0.000000000000000, 0.000000000000000, 0.000000000000000, 0.000000000000000, 0.000000000000000, 0.000000000000000, 0.000000000000000, 0.000000000000000, 0.000000000000000, 0.000000000000000, 0.000000000000000, 0.000000000000000, 0.000000000000000, 0.000000000000000, -0.000000000000000, -0.000000000000000, -0.000000000000000, -0.000000000000000, -0.000000000000000, -0.000000000000000, -0.000000000000000, -0.000000000000000, -0.000000000000000, -0.000000000000000, -0.000000000000000, -0.000000000000000, -0.000000000000000, -0.000000000000000, -0.000000000000000, -0.000000000000000, -0.000000000008211, -0.000000000006133, -0.000000000001169, -0.000000000000699, -0.000000000007774, 0.000000000001537, -0.000000000011657, -0.000000000010558, -0.000000000002294, -0.000000000001006, 0.000000000006380, -0.000000000000084, 0.000000000000009, 0.000000000003273, 0.000000000000599, 0.000000000007810, 0.000000000000000, 0.000000000000000, 0.000000000000000, 0.000000000000000, 0.000000000000000, 0.000000000000000, 0.000000000000000, 0.000000000000000, 0.000000000000000, 0.000000000000000, 0.000000000000000, 0.000000000000000, 0.000000000000000, 0.000000000000000, 0.000000000000000, 0.000000000000000, -0.000000000004071, 0.000000000001219, -0.000000000006771, -0.000000000007715, -0.000000000015614, -0.000000000001171, 0.000000000000595, -0.000000000008681, 0.000000000000114, -0.000000000009053, 0.000000000001638, -0.000000000007542, 0.000000000000583, -0.000000000002407, -0.000000000004957, -0.000000000001403, -0.000000000000663, 0.000000000000283, -0.000000000000878, -0.000000000000940, -0.000000000001078, -0.000000000000812, -0.000000000004796, 0.000000000001020, 0.000000000000128, 0.000000000002017, 0.000000000000471, 0.000000000000567, 0.000000000000127, -0.000000000000003, -0.000000000002577, -0.000000000000186, 0.000000000000000, 0.000000000000000, -0.000000000000000, -0.000000000000000, 0.000000000000000, -0.000000000000000, -0.000000000000000, 0.000000000000000, 0.000000000000000, 0.000000000000000, -0.000000000000000, -0.000000000000000, 0.000000000000000, 0.000000000000000, -0.000000000000000, 0.000000000000000, -0.000000000005566, -0.000000000008125, -0.000000000003128, -0.000000000002089, -0.000000000006678, -0.000000000002758, 0.000000000002449, 0.000000000002946, 0.000000000003171, -0.000000000007377, -0.000000000000651, -0.000000000001002, -0.000000000001009, -0.000000000012125, -0.000000000009674, -0.000000000000793, -0.000000000000000, -0.000000000000000, -0.000000000000000, -0.000000000000000, -0.000000000000000, -0.000000000000000, -0.000000000000000, -0.000000000000000, -0.000000000000000, -0.000000000000000, -0.000000000000000, -0.000000000000000, -0.000000000000000, -0.000000000000000, -0.000000000000000, -0.000000000000000, -0.000000000001726, -0.000000000003342, -0.000000000000633, 0.000000000003669, -0.000000000005464, -0.000000000006227, -0.000000000001580, -0.000000000009530, -0.000000000007065, -0.000000000004337, -0.000000000001498, 0.000000000004701, -0.000000000001923, 0.000000000001288, 0.000000000000698, -0.000000000006552, 0.000000000004020, -0.000000000007670, 0.000000000000219, -0.000000000008648, -0.000000000006579, 0.000000000000039, -0.000000000009026, 0.000000000001783, 0.000000000000512, 0.000000000003553, 0.000000000004440, -0.000000000002888, 0.000000000000764, -0.000000000010962, 0.000000000001605, 0.000000000000816, 0.000000000001607, 0.000000000000327, -0.000000000007958, 0.000000000001424, -0.000000000000785, 0.000000000001351, 0.000000000001307, -0.000000000005159, -0.000000000003480, -0.000000000006336, -0.000000000005668, -0.000000000000350, -0.000000000000739, -0.000000000006278, -0.000000000002340, -0.000000000001074, -0.000000000003443, -0.000000000003115, -0.000000000000764, -0.000000000004934, 0.000000000002029, 0.000000000001533, -0.000000000004284, -0.000000000006178, -0.000000000002760, -0.000000000004073, -0.000000000005171, -0.000000000008194, -0.000000000002994, -0.000000000001365, -0.000000000005291, -0.000000000007241, 0.000000000000000, 0.000000000000000, 0.000000000000000, 0.000000000000000, 0.000000000000000, 0.000000000000000, 0.000000000000000, 0.000000000000000, 0.000000000000000, 0.000000000000000, 0.000000000000000, 0.000000000000000, 0.000000000000000, 0.000000000000000, 0.000000000000000, 0.000000000000000, 0.000000000000000, 0.000000000000000, 0.000000000000000, 0.000000000000000, 0.000000000000000, 0.000000000000000, 0.000000000000000, 0.000000000000000, 0.000000000000000, 0.000000000000000, 0.000000000000000, 0.000000000000000, 0.000000000000000, 0.000000000000000, 0.000000000000000, 0.000000000000000, -0.000000000000000, -0.000000000000000, -0.000000000000000, -0.000000000000000, -0.000000000000000, -0.000000000000000, -0.000000000000000, -0.000000000000000, -0.000000000000000, -0.000000000000000, -0.000000000000000, -0.000000000000000, -0.000000000000000, -0.000000000000000, -0.000000000000000, -0.000000000000000, -0.000000000008659, 0.000000000002604, 0.000000000003177, -0.000000000001982, 0.000000000000760, -0.000000000001212, -0.000000000003152, 0.000000000002611, -0.000000000005333, 0.000000000003328, 0.000000000000521, 0.000000000005104, 0.000000000002766, -0.000000000000342, 0.000000000001230, 0.000000000001356, -0.000000000002615, -0.000000000001454, 0.000000000001235, -0.000000000000127, -0.000000000003475, -0.000000000003296, 0.000000000000464, 0.000000000000277, -0.000000000001630, 0.000000000001714, 0.000000000001225, -0.000000000001264, 0.000000000000562, 0.000000000001318, -0.000000000000793, 0.000000000001297, -0.000000000001329, -0.000000000006414, -0.000000000005669, 0.000000000000504, -0.000000000004371, -0.000000000001733, -0.000000000002781, 0.000000000001359, 0.000000000000805, 0.000000000001399, 0.000000000004658, 0.000000000004980, 0.000000000000713, 0.000000000002405, -0.000000000005043, -0.000000000000231, -0.000000000002182, 0.000000000004477, -0.000000000002908, -0.000000000002079, -0.000000000005481, 0.000000000002964, 0.000000000002859, -0.000000000000996, -0.000000000002524, -0.000000000003939, -0.000000000000024, -0.000000000005582, -0.000000000002413, 0.000000000001211, -0.000000000000540, 0.000000000002961, -0.000000000000000, -0.000000000000000, -0.000000000000000, -0.000000000000000, -0.000000000000000, -0.000000000000000, -0.000000000000000, -0.000000000000000, -0.000000000000000, -0.000000000000000, -0.000000000000000, -0.000000000000000, -0.000000000000000, -0.000000000000000, -0.000000000000000, -0.000000000000000, 0.000000000000000, 0.000000000000000, 0.000000000000000, 0.000000000000000, 0.000000000000000, 0.000000000000000, 0.000000000000000, 0.000000000000000, 0.000000000000000, 0.000000000000000, 0.000000000000000, 0.000000000000000, 0.000000000000000, 0.000000000000000, 0.000000000000000, 0.000000000000000, -0.000000000000000, -0.000000000000000, -0.000000000000000, -0.000000000000000, -0.000000000000000, -0.000000000000000, -0.000000000000000, -0.000000000000000, -0.000000000000000, -0.000000000000000, -0.000000000000000, -0.000000000000000, -0.000000000000000, -0.000000000000000, -0.000000000000000, -0.000000000000000, -0.000000000000929, -0.000000000001327, 0.000000000002592, -0.000000000006350, -0.000000000012029, -0.000000000001497, -0.000000000003873, -0.000000000008155, -0.000000000001154, 0.000000000000683, 0.000000000002613, 0.000000000005546, 0.000000000004360, -0.000000000004520, 0.000000000004665, 0.000000000002551, -0.000000000002229, -0.000000000001549, -0.000000000004347, 0.000000000000975, -0.000000000001140, 0.000000000003479, -0.000000000000692, -0.000000000001078, -0.000000000002042, 0.000000000002135, -0.000000000003750, -0.000000000005374, 0.000000000000963, 0.000000000001378, -0.000000000001118, 0.000000000001789, -0.000000000006084, 0.000000000001232, -0.000000000000170, -0.000000000004156, -0.000000000008063, -0.000000000006257, -0.000000000009893, -0.000000000009310, -0.000000000004420, -0.000000000000825, -0.000000000000620, -0.000000000006073, -0.000000000000293, -0.000000000003886, -0.000000000007268, -0.000000000008719, -0.000000000000038, 0.000000000000059, 0.000000000000032, 0.000000000000062, 0.000000000000061, -0.000000000000028, 0.000000000000097, -0.000000000000222, -0.000000000000179, -0.000000000000228, -0.000000000000242, -0.000000000000252, -0.000000000000184, -0.000000000000239, -0.000000000000104, -0.000000000000066, -0.000000000004314, -0.000000000003298, 0.000000000004215, -0.000000000012869, 0.000000000000022, -0.000000000009650, -0.000000000001019, -0.000000000000307, -0.000000000009822, 0.000000000002361, 0.000000000002984, -0.000000000009080, 0.000000000002692, 0.000000000000780, -0.000000000007244, 0.000000000002947, -0.000000000006615, 0.000000000006169, -0.000000000002487, -0.000000000000212, -0.000000000004210, 0.000000000005805, -0.000000000016389, -0.000000000011395, -0.000000000007669, 0.000000000001260, 0.000000000000737, -0.000000000005708, 0.000000000000285, 0.000000000006356, -0.000000000006565, 0.000000000006756, -0.000000000002480, -0.000000000000286, -0.000000000002700, -0.000000000005611, -0.000000000004336, -0.000000000003159, -0.000000000003542, -0.000000000004469, -0.000000000004163, -0.000000000000375, -0.000000000001602, 0.000000000003528, 0.000000000000213, 0.000000000002196, 0.000000000000967, -0.000000000006195, -0.000000000002251, -0.000000000008480, -0.000000000004097, -0.000000000000157, -0.000000000002183, -0.000000000005000, -0.000000000002231, -0.000000000007405, -0.000000000011301, -0.000000000002712, -0.000000000000603, -0.000000000005717, -0.000000000000024, 0.000000000000498, -0.000000000009637, 0.000000000001104, 0.000000000000000, 0.000000000000000, 0.000000000000000, 0.000000000000000, 0.000000000000000, 0.000000000000000, 0.000000000000000, 0.000000000000000, 0.000000000000000, 0.000000000000000, 0.000000000000000, 0.000000000000000, 0.000000000000000, 0.000000000000000, 0.000000000000000, 0.000000000000000, -0.000000000006770, -0.000000000002192, -0.000000000008427, -0.000000000000176, -0.000000000010707, -0.000000000010079, -0.000000000012750, -0.000000000001464, -0.000000000008635, -0.000000000002835, -0.000000000013921, -0.000000000002473, -0.000000000002165, 0.000000000002072, 0.000000000001271, -0.000000000005468, -0.000000000000226, -0.000000000001615, -0.000000000001461, -0.000000000001577, -0.000000000001612, 0.000000000001605, -0.000000000001056, -0.000000000001738, 0.000000000000282, 0.000000000001317, -0.000000000000201, -0.000000000000930, 0.000000000000882, 0.000000000000398, 0.000000000000354, -0.000000000000386, -0.000000000006520, 0.000000000001843, -0.000000000009512, 0.000000000000126, -0.000000000003879, -0.000000000002277, -0.000000000003635, 0.000000000005187, -0.000000000003545, 0.000000000000107, -0.000000000001477, 0.000000000005997, 0.000000000001757, 0.000000000002844, -0.000000000003097, 0.000000000000760, -0.000000000000000, 0.000000000000000, -0.000000000000000, -0.000000000000000, 0.000000000000000, 0.000000000000000, -0.000000000000000, -0.000000000000000, -0.000000000000000, -0.000000000000000, -0.000000000000000, -0.000000000000000, -0.000000000000000, -0.000000000000000, -0.000000000000000, -0.000000000000000, -0.000000000000000, -0.000000000000000, -0.000000000000000, -0.000000000000000, -0.000000000000000, -0.000000000000000, -0.000000000000000, -0.000000000000000, -0.000000000000000, -0.000000000000000, -0.000000000000000, 0.000000000000000, -0.000000000000000, -0.000000000000000, -0.000000000000000, -0.000000000000000, -0.000000000000000, -0.000000000000000, -0.000000000000000, -0.000000000000000, -0.000000000000000, -0.000000000000000, 0.000000000000000, -0.000000000000000, -0.000000000000000, -0.000000000000000, -0.000000000000000, -0.000000000000000, -0.000000000000000, -0.000000000000000, -0.000000000000000, -0.000000000000000, -0.000000000000000, -0.000000000000000, -0.000000000000000, -0.000000000000000, -0.000000000000000, -0.000000000000000, -0.000000000000000, -0.000000000000000, -0.000000000000000, -0.000000000000000, -0.000000000000000, -0.000000000000000, -0.000000000000000, -0.000000000000000, -0.000000000000000, -0.000000000000000, -0.000000000000000, -0.000000000000000, 0.000000000000000, -0.000000000000000, -0.000000000000000, -0.000000000000000, -0.000000000000000, -0.000000000000000, 0.000000000000000, -0.000000000000000, -0.000000000000000, -0.000000000000000, -0.000000000000000, 0.000000000000000, -0.000000000000000, -0.000000000000000, -0.000000000000000, 0.000000000000000, -0.000000000000000, -0.000000000000000, 0.000000000000000, -0.000000000000000, 0.000000000000000, 0.000000000000000, 0.000000000000000, 0.000000000000000, 0.000000000000000, -0.000000000000000, -0.000000000000000, 0.000000000000000, 0.000000000000000, -0.000000000000000, -0.000000000000000, -0.000000000000000, -0.000000000000000, 0.000000000000000, -0.000000000000000, -0.000000000000000, -0.000000000000000, -0.000000000000000, -0.000000000000000, -0.000000000000000, -0.000000000000000, -0.000000000000000, 0.000000000000000, 0.000000000000000, -0.000000000000000, -0.000000000000000, -0.000000000000000, 0.000000000000000, 0.000000000000000, -0.000000000000000, 0.000000000000000, -0.000000000000000, 0.000000000000000, -0.000000000000000, -0.000000000000000, -0.000000000000000, -0.000000000000000, -0.000000000000000, 0.000000000000000, -0.000000000000000, 0.000000000000000, -0.000000000000000, -0.000000000000000, -0.000000000000000, -0.000000000000000, -0.000000000000000, -0.000000000000000, -0.000000000000000, -0.000000000000000, -0.000000000000000, -0.000000000000000, -0.000000000000000, -0.000000000000000, -0.000000000000000, -0.000000000000000, -0.000000000000000, -0.000000000000000, -0.000000000000000, -0.000000000000000, -0.000000000000000, -0.000000000000000, -0.000000000000000, -0.000000000000000, -0.000000000000000, -0.000000000000000, -0.000000000000000, -0.000000000000000, -0.000000000000000, -0.000000000000000, -0.000000000000000, -0.000000000000000, -0.000000000000000, -0.000000000000000, -0.000000000000000, 0.000000000000000, -0.000000000000000, -0.000000000000000, -0.000000000000000, -0.000000000000000, 0.000000000000000, -0.000000000000000, -0.000000000000000, -0.000000000000000, -0.000000000000000, -0.000000000000000, -0.000000000000000, -0.000000000000000, -0.000000000000000, -0.000000000000000, -0.000000000000000, 0.000000000000000, 0.000000000000000, 0.000000000000000, 0.000000000000000, 0.000000000000000, 0.000000000000000, 0.000000000000000, 0.000000000000000, 0.000000000000000, 0.000000000000000, 0.000000000000000, 0.000000000000000, 0.000000000000000, 0.000000000000000, 0.000000000000000, 0.000000000000000, -0.000000000000000, -0.000000000000000, -0.000000000000000, -0.000000000000000, 0.000000000000000, -0.000000000000000, -0.000000000000000, -0.000000000000000, -0.000000000000000, -0.000000000000000, -0.000000000000000, -0.000000000000000, -0.000000000000000, -0.000000000000000, -0.000000000000000, -0.000000000000000, -0.000000000000000, -0.000000000000000, -0.000000000000000, -0.000000000000000, -0.000000000000000, -0.000000000000000, -0.000000000000000, -0.000000000000000, -0.000000000000000, -0.000000000000000, -0.000000000000000, -0.000000000000000, -0.000000000000000, -0.000000000000000, -0.000000000000000, -0.000000000000000, 0.000000000000000, 0.000000000000000, 0.000000000000000, 0.000000000000000, 0.000000000000000, 0.000000000000000, 0.000000000000000, 0.000000000000000, 0.000000000000000, 0.000000000000000, 0.000000000000000, 0.000000000000000, 0.000000000000000, 0.000000000000000, 0.000000000000000, 0.000000000000000, -0.000000000000000, -0.000000000000000, -0.000000000000000, -0.000000000000000, -0.000000000000000, -0.000000000000000, -0.000000000000000, -0.000000000000000, -0.000000000000000, -0.000000000000000, -0.000000000000000, -0.000000000000000, -0.000000000000000, -0.000000000000000, -0.000000000000000, -0.000000000000000, -0.000000000000000, -0.000000000000000, -0.000000000000000, -0.000000000000000, -0.000000000000000, -0.000000000000000, -0.000000000000000, -0.000000000000000, -0.000000000000000, -0.000000000000000, -0.000000000000000, -0.000000000000000, -0.000000000000000, -0.000000000000000, -0.000000000000000, -0.000000000000000, -0.000000000000000, -0.000000000000000, -0.000000000000000, -0.000000000000000, 0.000000000000000, -0.000000000000000, 0.000000000000000, -0.000000000000000, -0.000000000000000, -0.000000000000000, -0.000000000000000, -0.000000000000000, -0.000000000000000, -0.000000000000000, 0.000000000000000, -0.000000000000000, -0.000000000000000, -0.000000000000000, -0.000000000000000, -0.000000000000000, -0.000000000000000, 0.000000000000000, -0.000000000000000, -0.000000000000000, -0.000000000000000, -0.000000000000000, -0.000000000000000, -0.000000000000000, -0.000000000000000, -0.000000000000000, -0.000000000000000, -0.000000000000000, -0.000000000000000, -0.000000000000000, -0.000000000000000, -0.000000000000000, -0.000000000000000, -0.000000000000000, 0.000000000000000, -0.000000000000000, -0.000000000000000, -0.000000000000000, -0.000000000000000, -0.000000000000000, 0.000000000000000, -0.000000000000000, -0.000000000000000, -0.000000000000000, 0.000000000000000, -0.000000000000000, -0.000000000000000, -0.000000000000000, -0.000000000000000, 0.000000000000000, 0.000000000000000, -0.000000000000000, -0.000000000000000, 0.000000000000000, 0.000000000000000, -0.000000000000000, -0.000000000000000, -0.000000000000000, -0.000000000000000, -0.000000000000000, 0.000000000000000, 0.000000000000000, 0.000000000000000, 0.000000000000000, 0.000000000000000, 0.000000000000000, 0.000000000000000, 0.000000000000000, 0.000000000000000, 0.000000000000000, 0.000000000000000, 0.000000000000000, 0.000000000000000, 0.000000000000000, 0.000000000000000, 0.000000000000000, -0.000000000000000, -0.000000000000000, -0.000000000000000, -0.000000000000000, -0.000000000000000, -0.000000000000000, -0.000000000000000, 0.000000000000000, -0.000000000000000, -0.000000000000000, -0.000000000000000, -0.000000000000000, 0.000000000000000, -0.000000000000000, 0.000000000000000, 0.000000000000000, -0.000000000000000, -0.000000000000000, -0.000000000000000, 0.000000000000000, 0.000000000000000, -0.000000000000000, -0.000000000000000, -0.000000000000000, -0.000000000000000, -0.000000000000000, 0.000000000000000, -0.000000000000000, -0.000000000000000, 0.000000000000000, 0.000000000000000, -0.000000000000000, -0.000000000000000, -0.000000000000000, -0.000000000000000, -0.000000000000000, 0.000000000000000, -0.000000000000000, -0.000000000000000, -0.000000000000000, -0.000000000000000, -0.000000000000000, -0.000000000000000, -0.000000000000000, -0.000000000000000, -0.000000000000000, -0.000000000000000, -0.000000000000000, -0.000000000000000, -0.000000000000000, -0.000000000000000, -0.000000000000000, -0.000000000000000, -0.000000000000000, -0.000000000000000, -0.000000000000000, -0.000000000000000, -0.000000000000000, -0.000000000000000, -0.000000000000000, -0.000000000000000, -0.000000000000000, -0.000000000000000, -0.000000000000000, 0.000000000000000, 0.000000000000000, 0.000000000000000, 0.000000000000000, 0.000000000000000, 0.000000000000000, 0.000000000000000, 0.000000000000000, 0.000000000000000, 0.000000000000000, 0.000000000000000, 0.000000000000000, 0.000000000000000, 0.000000000000000, 0.000000000000000, 0.000000000000000, 0.000000000000000, -0.000000000000000, -0.000000000000000, 0.000000000000000, -0.000000000000000, 0.000000000000000, 0.000000000000000, -0.000000000000000, -0.000000000000000, 0.000000000000000, 0.000000000000000, -0.000000000000000, -0.000000000000000, -0.000000000000000, -0.000000000000000, -0.000000000000000, -0.000000000000000, 0.000000000000000, -0.000000000000000, -0.000000000000000, 0.000000000000000, 0.000000000000000, -0.000000000000000, -0.000000000000000, -0.000000000000000, 0.000000000000000, -0.000000000000000, -0.000000000000000, -0.000000000000000, -0.000000000000000, -0.000000000000000, -0.000000000000000, -0.000000000000000, -0.000000000000000, -0.000000000000000, -0.000000000000000, -0.000000000000000, 0.000000000000000, -0.000000000000000, -0.000000000000000, 0.000000000000000, -0.000000000000000, -0.000000000000000, -0.000000000000000, -0.000000000000000, 0.000000000000000, -0.000000000000000, -0.000000000000000, -0.000000000000000, -0.000000000000000, -0.000000000000000, -0.000000000000000, 0.000000000000000, -0.000000000000000, -0.000000000000000, -0.000000000000000, -0.000000000000000, -0.000000000000000, -0.000000000000000, -0.000000000000000, -0.000000000000000, -0.000000000000000, -0.000000000000000, -0.000000000000000, -0.000000000000000, -0.000000000000000, -0.000000000000000, -0.000000000000000, -0.000000000000000, -0.000000000000000, -0.000000000000000, -0.000000000000000, -0.000000000000000, -0.000000000000000, -0.000000000000000, -0.000000000000000, -0.000000000000000, -0.000000000000000, -0.000000000000000, -0.000000000000000, 0.000000000000000, 0.000000000000000, 0.000000000000000, 0.000000000000000, 0.000000000000000, 0.000000000000000, 0.000000000000000, 0.000000000000000, 0.000000000000000, 0.000000000000000, 0.000000000000000, 0.000000000000000, 0.000000000000000, 0.000000000000000, 0.000000000000000, 0.000000000000000, 0.000000000000000, -0.000000000000000, 0.000000000000000, -0.000000000000000, 0.000000000000000, 0.000000000000000, -0.000000000000000, 0.000000000000000, -0.000000000000000, -0.000000000000000, -0.000000000000000, -0.000000000000000, 0.000000000000000, 0.000000000000000, -0.000000000000000, -0.000000000000000, -0.000000000000000, -0.000000000000000, 0.000000000000000, 0.000000000000000, -0.000000000000000, 0.000000000000000, -0.000000000000000, -0.000000000000000, 0.000000000000000, -0.000000000000000, 0.000000000000000, -0.000000000000000, -0.000000000000000, -0.000000000000000, 0.000000000000000, -0.000000000000000, 0.000000000000000, 0.000000000000000, 0.000000000000000, 0.000000000000000, 0.000000000000000, 0.000000000000000, 0.000000000000000, 0.000000000000000, 0.000000000000000, 0.000000000000000, 0.000000000000000, 0.000000000000000, 0.000000000000000, 0.000000000000000, 0.000000000000000, 0.000000000000000, -0.000000000000000, -0.000000000000000, -0.000000000000000, -0.000000000000000, -0.000000000000000, -0.000000000000000, -0.000000000000000, -0.000000000000000, -0.000000000000000, -0.000000000000000, 0.000000000000000, -0.000000000000000, -0.000000000000000, 0.000000000000000, -0.000000000000000, -0.000000000000000, -0.000000000000000, -0.000000000000000, -0.000000000000000, -0.000000000000000, -0.000000000000000, -0.000000000000000, -0.000000000000000, -0.000000000000000, -0.000000000000000, -0.000000000000000, -0.000000000000000, -0.000000000000000, -0.000000000000000, -0.000000000000000, -0.000000000000000, -0.000000000000000, -0.000000000000000, -0.000000000000000, -0.000000000000000, -0.000000000000000, -0.000000000000000, -0.000000000000000, -0.000000000000000, -0.000000000000000, -0.000000000000000, -0.000000000000000, -0.000000000000000, -0.000000000000000, -0.000000000000000, -0.000000000000000, -0.000000000000000, -0.000000000000000, -0.000000000000000, 0.000000000000000, -0.000000000000000, -0.000000000000000, 0.000000000000000, 0.000000000000000, 0.000000000000000, -0.000000000000000, -0.000000000000000, -0.000000000000000, -0.000000000000000, -0.000000000000000, -0.000000000000000, -0.000000000000000, -0.000000000000000, -0.000000000000000, 0.000000000000000, 0.000000000000000, 0.000000000000000, 0.000000000000000, 0.000000000000000, 0.000000000000000, 0.000000000000000, 0.000000000000000, 0.000000000000000, 0.000000000000000, 0.000000000000000, 0.000000000000000, 0.000000000000000, 0.000000000000000, 0.000000000000000, 0.000000000000000, -0.000000000000000, 0.000000000000000, -0.000000000000000, 0.000000000000000, 0.000000000000000, 0.000000000000000, 0.000000000000000, 0.000000000000000, 0.000000000000000, 0.000000000000000, 0.000000000000000, -0.000000000000000, -0.000000000000000, 0.000000000000000, 0.000000000000000, -0.000000000000000, 0.000000000000000, 0.000000000000000, 0.000000000000000, 0.000000000000000, 0.000000000000000, 0.000000000000000, 0.000000000000000, 0.000000000000000, 0.000000000000000, 0.000000000000000, 0.000000000000000, 0.000000000000000, 0.000000000000000, 0.000000000000000, 0.000000000000000, 0.000000000000000, -0.000000000000000, -0.000000000000000, -0.000000000000000, -0.000000000000000, -0.000000000000000, -0.000000000000000, -0.000000000000000, -0.000000000000000, -0.000000000000000, -0.000000000000000, -0.000000000000000, -0.000000000000000, -0.000000000000000, -0.000000000000000, -0.000000000000000, -0.000000000000000, -0.000000000000000, -0.000000000000000, -0.000000000000000, -0.000000000000000, -0.000000000000000, -0.000000000000000, -0.000000000000000, -0.000000000000000, -0.000000000000000, -0.000000000000000, -0.000000000000000, -0.000000000000000, -0.000000000000000, -0.000000000000000, -0.000000000000000, -0.000000000000000, -0.000000000000000, -0.000000000000000, -0.000000000000000, -0.000000000000000, -0.000000000000000, -0.000000000000000, -0.000000000000000, -0.000000000000000, -0.000000000000000, -0.000000000000000, -0.000000000000000, -0.000000000000000, -0.000000000000000, -0.000000000000000, -0.000000000000000, -0.000000000000000, -0.000000000000000, -0.000000000000000, -0.000000000000000, -0.000000000000000, -0.000000000000000, -0.000000000000000, 0.000000000000000, 0.000000000000000, -0.000000000000000, -0.000000000000000, -0.000000000000000, -0.000000000000000, -0.000000000000000, -0.000000000000000, -0.000000000000000, -0.000000000000000, -0.000000000000000, -0.000000000000000, -0.000000000000000, -0.000000000000000, 0.000000000000000, -0.000000000000000, -0.000000000000000, -0.000000000000000, -0.000000000000000, -0.000000000000000, -0.000000000000000, -0.000000000000000, -0.000000000000000, -0.000000000000000, -0.000000000000000, -0.000000000000000, -0.000000000000000, -0.000000000000000, -0.000000000000000, -0.000000000000000, -0.000000000000000, -0.000000000000000, 0.000000000000000, -0.000000000000000, -0.000000000000000, -0.000000000000000, -0.000000000000000, -0.000000000000000, -0.000000000000000, -0.000000000000000, -0.000000000000000, -0.000000000000000, -0.000000000000000, -0.000000000000000, -0.000000000000000, -0.000000000000000, -0.000000000000000, -0.000000000000000, -0.000000000000000, -0.000000000000000, -0.000000000000000, -0.000000000000000, -0.000000000000000, -0.000000000000000, -0.000000000000000, -0.000000000000000, -0.000000000000000, -0.000000000000000, 0.000000000000000, 0.000000000000000, 0.000000000000000, -0.000000000000000, -0.000000000000000, 0.000000000000000, -0.000000000000000, -0.000000000000000, 0.000000000000000, 0.000000000000000, 0.000000000000000, 0.000000000000000, -0.000000000000000, -0.000000000000000, -0.000000000000000, -0.000000000000000, -0.000000000000000, 0.000000000000000, 0.000000000000000, -0.000000000000000, 0.000000000000000, 0.000000000000000, 0.000000000000000, 0.000000000000000, 0.000000000000000, 0.000000000000000, -0.000000000000000, 0.000000000000000, -0.000000000000000, 0.000000000000000, -0.000000000000000, 0.000000000000000, -0.000000000000000, -0.000000000000000, -0.000000000000000, -0.000000000000000, -0.000000000000000, -0.000000000000000, -0.000000000000000, -0.000000000000000, -0.000000000000000, 0.000000000000000, -0.000000000000000, -0.000000000000000, -0.000000000000000, -0.000000000000000, -0.000000000000000, -0.000000000000000, -0.000000000000000, -0.000000000000000, -0.000000000000000, -0.000000000000000, -0.000000000000000, -0.000000000000000, -0.000000000000000, -0.000000000000000, -0.000000000000000, -0.000000000000000, -0.000000000000000, -0.000000000000000, -0.000000000000000, -0.000000000000000, -0.000000000000000, -0.000000000000000, -0.000000000000000, -0.000000000000000, -0.000000000000000, -0.000000000000000, -0.000000000000000, -0.000000000000000, -0.000000000000000, -0.000000000000000, -0.000000000000000, -0.000000000000000, -0.000000000000000, -0.000000000000000, -0.000000000000000, 0.000000000000000, -0.000000000000000, -0.000000000000000, 0.000000000000000, 0.000000000000000, 0.000000000000000, 0.000000000000000, 0.000000000000000, 0.000000000000000, 0.000000000000000, 0.000000000000000, 0.000000000000000, 0.000000000000000, 0.000000000000000, 0.000000000000000, 0.000000000000000, 0.000000000000000, 0.000000000000000, 0.000000000000000, -0.000000000000000, -0.000000000000000, -0.000000000000000, -0.000000000000000, -0.000000000000000, -0.000000000000000, 0.000000000000000, -0.000000000000000, -0.000000000000000, -0.000000000000000, -0.000000000000000, -0.000000000000000, -0.000000000000000, 0.000000000000000, -0.000000000000000, -0.000000000000000, -0.000000000000000, -0.000000000000000, -0.000000000000000, -0.000000000000000, 0.000000000000000, -0.000000000000000, -0.000000000000000, -0.000000000000000, -0.000000000000000, -0.000000000000000, -0.000000000000000, -0.000000000000000, -0.000000000000000, -0.000000000000000, -0.000000000000000, -0.000000000000000, 0.000000000000000, 0.000000000000000, 0.000000000000000, 0.000000000000000, 0.000000000000000, 0.000000000000000, 0.000000000000000, 0.000000000000000, 0.000000000000000, 0.000000000000000, 0.000000000000000, 0.000000000000000, 0.000000000000000, 0.000000000000000, 0.000000000000000, 0.000000000000000, 0.000000000000000, 0.000000000000000, 0.000000000000000, 0.000000000000000, 0.000000000000000, 0.000000000000000, 0.000000000000000, 0.000000000000000, 0.000000000000000, 0.000000000000000, 0.000000000000000, 0.000000000000000, 0.000000000000000, 0.000000000000000, 0.000000000000000, 0.000000000000000, 0.000000000000000, 0.000000000000000, 0.000000000000000, 0.000000000000000, 0.000000000000000, 0.000000000000000, 0.000000000000000, 0.000000000000000, 0.000000000000000, 0.000000000000000, 0.000000000000000, 0.000000000000000, 0.000000000000000, 0.000000000000000, 0.000000000000000, 0.000000000000000, -0.000000000000000, -0.000000000000000, -0.000000000000000, -0.000000000000000, 0.000000000000000, -0.000000000000000, -0.000000000000000, -0.000000000000000, -0.000000000000000, -0.000000000000000, -0.000000000000000, -0.000000000000000, -0.000000000000000, -0.000000000000000, -0.000000000000000, -0.000000000000000, -0.000000000000000, -0.000000000000000, -0.000000000000000, -0.000000000000000, -0.000000000000000, -0.000000000000000, -0.000000000000000, -0.000000000000000, -0.000000000000000, -0.000000000000000, -0.000000000000000, -0.000000000000000, -0.000000000000000, -0.000000000000000, -0.000000000000000, -0.000000000000000, -0.000000000000000, -0.000000000000000, -0.000000000000000, -0.000000000000000, -0.000000000000000, -0.000000000000000, -0.000000000000000, -0.000000000000000, -0.000000000000000, -0.000000000000000, -0.000000000000000, -0.000000000000000, -0.000000000000000, -0.000000000000000, -0.000000000000000, -0.000000000000000, -0.000000000000000, -0.000000000000000, -0.000000000000000, -0.000000000000000, -0.000000000000000, -0.000000000000000, 0.000000000000000, -0.000000000000000, -0.000000000000000, -0.000000000000000, -0.000000000000000, -0.000000000000000, -0.000000000000000, -0.000000000000000, -0.000000000000000, -0.000000000000000, 0.000000000000000, 0.000000000000000, 0.000000000000000, 0.000000000000000, 0.000000000000000, 0.000000000000000, 0.000000000000000, 0.000000000000000, 0.000000000000000, 0.000000000000000, 0.000000000000000, 0.000000000000000, 0.000000000000000, 0.000000000000000, 0.000000000000000, 0.000000000000000, 0.000000000000000, 0.000000000000000, 0.000000000000000, 0.000000000000000, 0.000000000000000, 0.000000000000000, 0.000000000000000, 0.000000000000000, 0.000000000000000, 0.000000000000000, 0.000000000000000, 0.000000000000000, 0.000000000000000, 0.000000000000000, 0.000000000000000, 0.000000000000000, -0.000000000000000, -0.000000000000000, 0.000000000000000, -0.000000000000000, -0.000000000000000, -0.000000000000000, 0.000000000000000, -0.000000000000000, -0.000000000000000, -0.000000000000000, -0.000000000000000, -0.000000000000000, -0.000000000000000, 0.000000000000000, -0.000000000000000, -0.000000000000000, -0.000000000000000, -0.000000000000000, -0.000000000000000, -0.000000000000000, -0.000000000000000, -0.000000000000000, -0.000000000000000, -0.000000000000000, -0.000000000000000, -0.000000000000000, -0.000000000000000, -0.000000000000000, -0.000000000000000, -0.000000000000000, -0.000000000000000, -0.000000000000000, 0.000000000000000, -0.000000000000000, -0.000000000000000, -0.000000000000000, -0.000000000000000, 0.000000000000000, -0.000000000000000, -0.000000000000000, 0.000000000000000, 0.000000000000000, -0.000000000000000, -0.000000000000000, -0.000000000000000, -0.000000000000000, -0.000000000000000, -0.000000000000000, -0.000000000000000, -0.000000000000000, -0.000000000000000, 0.000000000000000, 0.000000000000000, -0.000000000000000, -0.000000000000000, 0.000000000000000, -0.000000000000000, -0.000000000000000, -0.000000000000000, -0.000000000000000, -0.000000000000000, 0.000000000000000, -0.000000000000000, -0.000000000000000, -0.000000000000000, -0.000000000000000, -0.000000000000000, -0.000000000000000, -0.000000000000000, 0.000000000000000, -0.000000000000000, -0.000000000000000, -0.000000000000000, -0.000000000000000, -0.000000000000000, -0.000000000000000, -0.000000000000000, -0.000000000000000, 0.000000000000000, -0.000000000000000, -0.000000000000000, -0.000000000000000, -0.000000000000000, -0.000000000000000, -0.000000000000000, -0.000000000000000, -0.000000000000000, -0.000000000000000, -0.000000000000000, -0.000000000000000, -0.000000000000000, -0.000000000000000, -0.000000000000000, -0.000000000000000, -0.000000000000000, -0.000000000000000, -0.000000000000000, -0.000000000000000, -0.000000000000000, -0.000000000000000, -0.000000000000000, -0.000000000000000, -0.000000000000000, -0.000000000000000, -0.000000000000000, -0.000000000000000, -0.000000000000000, -0.000000000000000, -0.000000000000000, -0.000000000000000, -0.000000000000000, -0.000000000000000, -0.000000000000000, -0.000000000000000, -0.000000000000000, -0.000000000000000, -0.000000000000000, -0.000000000000000, 0.000000000000000, 0.000000000000000, 0.000000000000000, -0.000000000000000, -0.000000000000000, -0.000000000000000, -0.000000000000000, -0.000000000000000, -0.000000000000000, -0.000000000000000, -0.000000000000000, -0.000000000000000, -0.000000000000000, -0.000000000000000, -0.000000000000000, -0.000000000000000, -0.000000000000000, -0.000000000000000, -0.000000000000000, -0.000000000000000, -0.000000000000000, -0.000000000000000, -0.000000000000000, -0.000000000000000, -0.000000000000000, -0.000000000000000, 0.000000000000000, 0.000000000000000, 0.000000000000000, 0.000000000000000, 0.000000000000000, 0.000000000000000, 0.000000000000000, 0.000000000000000, 0.000000000000000, 0.000000000000000, 0.000000000000000, 0.000000000000000, 0.000000000000000, 0.000000000000000, 0.000000000000000, 0.000000000000000, 0.000000000000000, 0.000000000000000, 0.000000000000000, 0.000000000000000, 0.000000000000000, 0.000000000000000, 0.000000000000000, 0.000000000000000, 0.000000000000000, 0.000000000000000, 0.000000000000000, 0.000000000000000, 0.000000000000000, 0.000000000000000, 0.000000000000000, 0.000000000000000, 0.000000000000000, 0.000000000000000, 0.000000000000000, 0.000000000000000, 0.000000000000000, 0.000000000000000, 0.000000000000000, 0.000000000000000, 0.000000000000000, 0.000000000000000, 0.000000000000000, 0.000000000000000, 0.000000000000000, 0.000000000000000, 0.000000000000000, 0.000000000000000, -0.000000000000000, -0.000000000000000, 0.000000000000000, -0.000000000000000, -0.000000000000000, -0.000000000000000, -0.000000000000000, -0.000000000000000, 0.000000000000000, -0.000000000000000, -0.000000000000000, -0.000000000000000, -0.000000000000000, -0.000000000000000, 0.000000000000000, -0.000000000000000, -0.000000000000000, -0.000000000000000, -0.000000000000000, -0.000000000000000, -0.000000000000000, -0.000000000000000, 0.000000000000000, -0.000000000000000, -0.000000000000000, -0.000000000000000, -0.000000000000000, 0.000000000000000, -0.000000000000000, 0.000000000000000, -0.000000000000000, -0.000000000000000, -0.000000000000000, -0.000000000000000, -0.000000000000000, 0.000000000000000, -0.000000000000000, 0.000000000000000, 0.000000000000000, -0.000000000000000, -0.000000000000000, -0.000000000000000, -0.000000000000000, -0.000000000000000, -0.000000000000000, 0.000000000000000, -0.000000000000000, -0.000000000000000, -0.000000000000000, -0.000000000000000, -0.000000000000000, -0.000000000000000, -0.000000000000000, -0.000000000000000, -0.000000000000000, -0.000000000000000, -0.000000000000000, -0.000000000000000, -0.000000000000000, -0.000000000000000, -0.000000000000000, -0.000000000000000, -0.000000000000000, -0.000000000000000, 0.000000000000000, 0.000000000000000, 0.000000000000000, 0.000000000000000, 0.000000000000000, 0.000000000000000, 0.000000000000000, 0.000000000000000, 0.000000000000000, 0.000000000000000, 0.000000000000000, 0.000000000000000, 0.000000000000000, 0.000000000000000, 0.000000000000000, 0.000000000000000, -0.000000000000000, -0.000000000000000, -0.000000000000000, -0.000000000000000, -0.000000000000000, -0.000000000000000, -0.000000000000000, -0.000000000000000, -0.000000000000000, -0.000000000000000, -0.000000000000000, -0.000000000000000, -0.000000000000000, -0.000000000000000, -0.000000000000000, -0.000000000000000, -0.000000000000000, -0.000000000000000, -0.000000000000000, -0.000000000000000, -0.000000000000000, -0.000000000000000, -0.000000000000000, -0.000000000000000, -0.000000000000000, -0.000000000000000, -0.000000000000000, -0.000000000000000, -0.000000000000000, -0.000000000000000, -0.000000000000000, -0.000000000000000, -0.000000000000000, -0.000000000000000, -0.000000000000000, -0.000000000000000, -0.000000000000000, -0.000000000000000, -0.000000000000000, -0.000000000000000, -0.000000000000000, -0.000000000000000, -0.000000000000000, -0.000000000000000, -0.000000000000000, -0.000000000000000, -0.000000000000000, -0.000000000000000, -0.000000000000000, 0.000000000000000, -0.000000000000000, -0.000000000000000, -0.000000000000000, 0.000000000000000, -0.000000000000000, -0.000000000000000, -0.000000000000000, -0.000000000000000, -0.000000000000000, -0.000000000000000, -0.000000000000000, -0.000000000000000, -0.000000000000000, -0.000000000000000, -0.000000000000000, -0.000000000000000, -0.000000000000000, -0.000000000000000, -0.000000000000000, -0.000000000000000, -0.000000000000000, -0.000000000000000, -0.000000000000000, -0.000000000000000, -0.000000000000000, -0.000000000000000, -0.000000000000000, -0.000000000000000, -0.000000000000000, -0.000000000000000, -0.000000000000000, -0.000000000000000, -0.000000000000000, -0.000000000000000, -0.000000000000000, -0.000000000000000, -0.000000000000000, -0.000000000000000, -0.000000000000000, -0.000000000000000, -0.000000000000000, -0.000000000000000, -0.000000000000000, -0.000000000000000, -0.000000000000000, -0.000000000000000, 0.000000000000000, 0.000000000000000, 0.000000000000000, 0.000000000000000, 0.000000000000000, 0.000000000000000, 0.000000000000000, 0.000000000000000, 0.000000000000000, 0.000000000000000, 0.000000000000000, 0.000000000000000, 0.000000000000000, 0.000000000000000, 0.000000000000000, 0.000000000000000, -0.000000000000000, 0.000000000000000, -0.000000000000000, 0.000000000000000, -0.000000000000000, -0.000000000000000, 0.000000000000000, 0.000000000000000, -0.000000000000000, 0.000000000000000, -0.000000000000000, -0.000000000000000, -0.000000000000000, -0.000000000000000, -0.000000000000000, -0.000000000000000, -0.000000000000000, -0.000000000000000, -0.000000000000000, 0.000000000000000, -0.000000000000000, 0.000000000000000, -0.000000000000000, -0.000000000000000, -0.000000000000000, -0.000000000000000, -0.000000000000000, -0.000000000000000, -0.000000000000000, -0.000000000000000, -0.000000000000000, -0.000000000000000, -0.000000000000000, -0.000000000000000, -0.000000000000000, -0.000000000000000, -0.000000000000000, -0.000000000000000, -0.000000000000000, -0.000000000000000, -0.000000000000000, -0.000000000000000, -0.000000000000000, -0.000000000000000, -0.000000000000000, -0.000000000000000, -0.000000000000000, -0.000000000000000, -0.000000000000000, -0.000000000000000, -0.000000000000000, -0.000000000000000, -0.000000000000000, -0.000000000000000, -0.000000000000000, -0.000000000000000, -0.000000000000000, -0.000000000000000, -0.000000000000000, -0.000000000000000, -0.000000000000000, -0.000000000000000, -0.000000000000000, -0.000000000000000, -0.000000000000000, -0.000000000000000, -0.000000000000000, -0.000000000000000, -0.000000000000000, -0.000000000000000, -0.000000000000000, -0.000000000000000, -0.000000000000000, -0.000000000000000, -0.000000000000000, -0.000000000000000, -0.000000000000000, -0.000000000000000, -0.000000000000000, -0.000000000000000, 0.000000000000000, 0.000000000000000, 0.000000000000000, 0.000000000000000, 0.000000000000000, 0.000000000000000, 0.000000000000000, 0.000000000000000, 0.000000000000000, 0.000000000000000, 0.000000000000000, 0.000000000000000, 0.000000000000000, 0.000000000000000, 0.000000000000000, 0.000000000000000, -0.000000000000000, -0.000000000000000, -0.000000000000000, 0.000000000000000, -0.000000000000000, -0.000000000000000, -0.000000000000000, 0.000000000000000, 0.000000000000000, 0.000000000000000, -0.000000000000000, -0.000000000000000, -0.000000000000000, -0.000000000000000, -0.000000000000000, -0.000000000000000, -0.000000000000000, -0.000000000000000, -0.000000000000000, -0.000000000000000, -0.000000000000000, -0.000000000000000, 0.000000000000000, -0.000000000000000, -0.000000000000000, -0.000000000000000, -0.000000000000000, -0.000000000000000, -0.000000000000000, -0.000000000000000, -0.000000000000000, -0.000000000000000, -0.000000000000000, -0.000000000000000, -0.000000000000000, -0.000000000000000, 0.000000000000000, -0.000000000000000, 0.000000000000000, -0.000000000000000, -0.000000000000000, 0.000000000000000, -0.000000000000000, -0.000000000000000, 0.000000000000000, -0.000000000000000, 0.000000000000000, 0.000000000000000, -0.000000000000000, -0.000000000000000, 0.000000000000000, -0.000000000000000, 0.000000000000000, -0.000000000000000, -0.000000000000000, 0.000000000000000, -0.000000000000000, 0.000000000000000, -0.000000000000000, -0.000000000000000, -0.000000000000000, -0.000000000000000, -0.000000000000000, -0.000000000000000, 0.000000000000000, 0.000000000000000, 0.000000000000000, 0.000000000000000, 0.000000000000000, 0.000000000000000, 0.000000000000000, 0.000000000000000, 0.000000000000000, 0.000000000000000, 0.000000000000000, 0.000000000000000, 0.000000000000000, 0.000000000000000, 0.000000000000000, 0.000000000000000, 0.000000000000000, -0.000000000000000, -0.000000000000000, -0.000000000000000, -0.000000000000000, -0.000000000000000, 0.000000000000000, 0.000000000000000, -0.000000000000000, -0.000000000000000, -0.000000000000000, -0.000000000000000, -0.000000000000000, -0.000000000000000, 0.000000000000000, -0.000000000000000, -0.000000000000000, -0.000000000000000, -0.000000000000000, -0.000000000000000, -0.000000000000000, -0.000000000000000, -0.000000000000000, -0.000000000000000, -0.000000000000000, -0.000000000000000, -0.000000000000000, -0.000000000000000, -0.000000000000000, -0.000000000000000, -0.000000000000000, -0.000000000000000, -0.000000000000000, -0.000000000000000, -0.000000000000000, -0.000000000000000, -0.000000000000000, -0.000000000000000, -0.000000000000000, 0.000000000000000, -0.000000000000000, -0.000000000000000, 0.000000000000000, -0.000000000000000, -0.000000000000000, -0.000000000000000, -0.000000000000000, -0.000000000000000, -0.000000000000000, -0.000000000000000, 0.000000000000000, 0.000000000000000, -0.000000000000000, -0.000000000000000, -0.000000000000000, -0.000000000000000, -0.000000000000000, -0.000000000000000, -0.000000000000000, -0.000000000000000, -0.000000000000000, -0.000000000000000, 0.000000000000000, 0.000000000000000, -0.000000000000000, -0.000000000000000, -0.000000000000000, -0.000000000000000, -0.000000000000000, -0.000000000000000, -0.000000000000000, -0.000000000000000, -0.000000000000000, -0.000000000000000, -0.000000000000000, -0.000000000000000, -0.000000000000000, -0.000000000000000, -0.000000000000000, -0.000000000000000, -0.000000000000000, -0.000000000000000, -0.000000000000000, -0.000000000000000, -0.000000000000000, -0.000000000000000, -0.000000000000000, -0.000000000000000, -0.000000000000000, -0.000000000000000, -0.000000000000000, -0.000000000000000, -0.000000000000000, -0.000000000000000, -0.000000000000000, -0.000000000000000, -0.000000000000000, -0.000000000000000, -0.000000000000000, -0.000000000000000, -0.000000000000000, -0.000000000000000, -0.000000000000000, -0.000000000000000, -0.000000000000000, -0.000000000000000, -0.000000000000000, -0.000000000000000, -0.000000000000000, -0.000000000000000, -0.000000000000000, -0.000000000000000, 0.000000000000000, 0.000000000000000, -0.000000000000000, -0.000000000000000, -0.000000000000000, 0.000000000000000, -0.000000000000000, -0.000000000000000, -0.000000000000000, -0.000000000000000, -0.000000000000000, -0.000000000000000, -0.000000000000000, -0.000000000000000, -0.000000000000000, -0.000000000000000, -0.000000000000000, -0.000000000000000, -0.000000000000000, 0.000000000000000, -0.000000000000000, 0.000000000000000, -0.000000000000000, -0.000000000000000, -0.000000000000000, -0.000000000000000, -0.000000000000000, -0.000000000000000, -0.000000000000000, 0.000000000000000, -0.000000000000000, -0.000000000000000, -0.000000000000000, -0.000000000000000, -0.000000000000000, -0.000000000000000, -0.000000000000000, -0.000000000000000, -0.000000000000000, -0.000000000000000, -0.000000000000000, -0.000000000000000, -0.000000000000000, -0.000000000000000, -0.000000000000000, -0.000000000000000, -0.000000000000000, -0.000000000000000, -0.000000000000000, -0.000000000000000, -0.000000000000000, -0.000000000000000, -0.000000000000000, -0.000000000000000, -0.000000000000000, -0.000000000000000, -0.000000000000000, -0.000000000000000, -0.000000000000000, -0.000000000000000, -0.000000000000000, -0.000000000000000, -0.000000000000000, -0.000000000000000, -0.000000000000000, -0.000000000000000, -0.000000000000000, -0.000000000000000, -0.000000000000000, -0.000000000000000, -0.000000000000000, -0.000000000000000, -0.000000000000000, -0.000000000000000, -0.000000000000000, -0.000000000000000, -0.000000000000000, -0.000000000000000, -0.000000000000000, -0.000000000000000, 0.000000000000000, 0.000000000000000, 0.000000000000000, 0.000000000000000, 0.000000000000000, 0.000000000000000, 0.000000000000000, 0.000000000000000, 0.000000000000000, 0.000000000000000, 0.000000000000000, 0.000000000000000, 0.000000000000000, 0.000000000000000, 0.000000000000000, 0.000000000000000, -0.000000000000000, -0.000000000000000, -0.000000000000000, -0.000000000000000, -0.000000000000000, -0.000000000000000, -0.000000000000000, -0.000000000000000, -0.000000000000000, -0.000000000000000, -0.000000000000000, -0.000000000000000, -0.000000000000000, -0.000000000000000, -0.000000000000000, -0.000000000000000, -0.000000000000000, -0.000000000000000, -0.000000000000000, -0.000000000000000, -0.000000000000000, -0.000000000000000, -0.000000000000000, -0.000000000000000, -0.000000000000000, -0.000000000000000, -0.000000000000000, -0.000000000000000, -0.000000000000000, -0.000000000000000, -0.000000000000000, -0.000000000000000, -0.000000000000000, -0.000000000000000, -0.000000000000000, -0.000000000000000, -0.000000000000000, -0.000000000000000, -0.000000000000000, -0.000000000000000, -0.000000000000000, -0.000000000000000, -0.000000000000000, -0.000000000000000, -0.000000000000000, -0.000000000000000, -0.000000000000000, -0.000000000000000, -0.000000000000000, -0.000000000000000, -0.000000000000000, -0.000000000000000, -0.000000000000000, -0.000000000000000, 0.000000000000000, 0.000000000000000, -0.000000000000000, -0.000000000000000, -0.000000000000000, -0.000000000000000, -0.000000000000000, -0.000000000000000, -0.000000000000000, 0.000000000000000, -0.000000000000000, 0.000000000000000, 0.000000000000000, -0.000000000000000, -0.000000000000000, 0.000000000000000, -0.000000000000000, 0.000000000000000, 0.000000000000000, 0.000000000000000, 0.000000000000000, 0.000000000000000, -0.000000000000000, -0.000000000000000, -0.000000000000000, -0.000000000000000, -0.000000000000000, -0.000000000000000, -0.000000000000000, 0.000000000000000, -0.000000000000000, -0.000000000000000, -0.000000000000000, 0.000000000000000, -0.000000000000000, -0.000000000000000, -0.000000000000000, -0.000000000000000, -0.000000000000000, -0.000000000000000, -0.000000000000000, -0.000000000000000, -0.000000000000000, -0.000000000000000, -0.000000000000000, -0.000000000000000, -0.000000000000000, -0.000000000000000, -0.000000000000000, -0.000000000000000, -0.000000000000000, -0.000000000000000, -0.000000000000000, -0.000000000000000, -0.000000000000000, -0.000000000000000, -0.000000000000000, -0.000000000000000, -0.000000000000000, -0.000000000000000, -0.000000000000000, -0.000000000000000, -0.000000000000000, -0.000000000000000, 0.000000000000000, -0.000000000000000, -0.000000000000000, -0.000000000000000, -0.000000000000000, -0.000000000000000, -0.000000000000000, -0.000000000000000, -0.000000000000000, -0.000000000000000, -0.000000000000000, -0.000000000000000, 0.000000000000000, -0.000000000000000, -0.000000000000000, -0.000000000000000, 0.000000000000000, 0.000000000000000, -0.000000000000000, -0.000000000000000, -0.000000000000000, -0.000000000000000, -0.000000000000000, 0.000000000000000, 0.000000000000000, -0.000000000000000, 0.000000000000000, 0.000000000000000, 0.000000000000000, 0.000000000000000, 0.000000000000000, 0.000000000000000, 0.000000000000000, 0.000000000000000, 0.000000000000000, 0.000000000000000, 0.000000000000000, 0.000000000000000, 0.000000000000000, 0.000000000000000, 0.000000000000000, 0.000000000000000, -0.000000000000000, -0.000000000000000, 0.000000000000000, -0.000000000000000, -0.000000000000000, -0.000000000000000, 0.000000000000000, -0.000000000000000, -0.000000000000000, -0.000000000000000, -0.000000000000000, -0.000000000000000, -0.000000000000000, -0.000000000000000, -0.000000000000000, -0.000000000000000, -0.000000000000000, -0.000000000000000, -0.000000000000000, -0.000000000000000, -0.000000000000000, -0.000000000000000, -0.000000000000000, -0.000000000000000, -0.000000000000000, -0.000000000000000, -0.000000000000000, -0.000000000000000, -0.000000000000000, -0.000000000000000, -0.000000000000000, -0.000000000000000, -0.000000000000000, -0.000000000000000, -0.000000000000000, -0.000000000000000, -0.000000000000000, -0.000000000000000, -0.000000000000000, -0.000000000000000, -0.000000000000000, -0.000000000000000, -0.000000000000000, -0.000000000000000, -0.000000000000000, -0.000000000000000, -0.000000000000000, -0.000000000000000, -0.000000000000000, -0.000000000000000, 0.000000000000000, 0.000000000000000, -0.000000000000000, -0.000000000000000, 0.000000000000000, 0.000000000000000, 0.000000000000000, 0.000000000000000, 0.000000000000001, -0.000000000000000, -0.000000000000000, -0.000000000000000, -0.000000000000000, 0.000000000000000, 0.000000000000000, 0.000000000000000, 0.000000000000000, 0.000000000000001, 0.000000000000001, 0.000000000000000, 0.000000000000001, 0.000000000000000, 0.000000000000000, 0.000000000000000, 0.000000000000001, -0.000000000000000, 0.000000000000000, 0.000000000000000, 0.000000000000000, 0.000000000000000, 0.000000000000000, 0.000000000000001, 0.000000000000000, 0.000000000000000, 0.000000000000000, 0.000000000000000, -0.000000000000000, 0.000000000000000, 0.000000000000000, 0.000000000000001, 0.000000000000000, 0.000000000000000, 0.000000000000000, 0.000000000000000, 0.000000000000000, 0.000000000000000, 0.000000000000000, 0.000000000000001, 0.000000000000000, 0.000000000000001, 0.000000000000000, 0.000000000000001, -0.000000000000000, -0.000000000000000, 0.000000000000001, 0.000000000000000, 0.000000000000001, -0.000000000000000, 0.000000000000001, -0.000000000000000, 0.000000000000000, 0.000000000000001, 0.000000000000000, 0.000000000000000, -0.000000000000000, 0.000000000000000, -0.000000000000000, -0.000000000000000, 0.000000000000000, 0.000000000000000, -0.000000000000000, -0.000000000000000, -0.000000000000000, 0.000000000000000, 0.000000000000000, -0.000000000000000, -0.000000000000000, -0.000000000000000, 0.000000000000000, -0.000000000000000, 0.000000000000000, 0.000000000000000, -0.000000000000000, -0.000000000000000, -0.000000000000000, -0.000000000000000, -0.000000000000000, -0.000000000000000, -0.000000000000000, 0.000000000000000, 0.000000000000000, -0.000000000000000, -0.000000000000000, 0.000000000000000, 0.000000000000000, 0.000000000000001, 0.000000000000000, -0.000000000000001, -0.000000000000000, 0.000000000000001, -0.000000000000000, -0.000000000000000, -0.000000000000000, -0.000000000000001, -0.000000000000000, 0.000000000000000, -0.000000000000001, -0.000000000000000, 0.000000000000000, 0.000000000000000, 0.000000000000000, -0.000000000000000, -0.000000000000001, 0.000000000000000, -0.000000000000001, 0.000000000000000, -0.000000000000001, 0.000000000000000, 0.000000000000000, -0.000000000000000, 0.000000000000000, 0.000000000000001, -0.000000000000001, 0.000000000000000, -0.000000000000001, -0.000000000000000, 0.000000000000000, 0.000000000000000, 0.000000000000001, 0.000000000000000, 0.000000000000000, 0.000000000000000, 0.000000000000001, 0.000000000000000, 0.000000000000000, 0.000000000000001, 0.000000000000000, 0.000000000000000, 0.000000000000000, 0.000000000000001, -0.000000000000000, 0.000000000000000, 0.000000000000000, 0.000000000000000, 0.000000000000000, 0.000000000000000, 0.000000000000000, 0.000000000000000, 0.000000000000000, 0.000000000000000, 0.000000000000000, 0.000000000000000, 0.000000000000000, 0.000000000000000, 0.000000000000000, 0.000000000000000, 0.000000000000000, 0.000000000000000, -0.000000000000001, 0.000000000000000, 0.000000000000000, 0.000000000000000, 0.000000000000000, -0.000000000000000, -0.000000000000000, 0.000000000000001, 0.000000000000000, 0.000000000000001, -0.000000000000000, 0.000000000000000, 0.000000000000000, 0.000000000000000, 0.000000000000000, 0.000000000000000, 0.000000000000000, 0.000000000000000, 0.000000000000000, 0.000000000000000, 0.000000000000000, 0.000000000000000, 0.000000000000000, 0.000000000000000, 0.000000000000000, 0.000000000000000, 0.000000000000000, 0.000000000000000, 0.000000000000000, 0.000000000000000, 0.000000000000000, 0.000000000000000, 0.000000000000000, -0.000000000000000, 0.000000000000000, -0.000000000000000, -0.000000000000000, 0.000000000000001, -0.000000000000000, -0.000000000000000, -0.000000000000000, 0.000000000000000, 0.000000000000000, 0.000000000000001, 0.000000000000001, -0.000000000000000, 0.000000000000000, 0.000000000000000, 0.000000000000000, 0.000000000000000, 0.000000000000000, 0.000000000000000, 0.000000000000000, 0.000000000000000, 0.000000000000000, 0.000000000000000, 0.000000000000000, 0.000000000000000, 0.000000000000000, 0.000000000000000, 0.000000000000000, 0.000000000000000, 0.000000000000000, 0.000000000000000, -0.000000000000000, -0.000000000000000, -0.000000000000000, -0.000000000000000, -0.000000000000000, -0.000000000000000, -0.000000000000000, -0.000000000000000, -0.000000000000000, -0.000000000000000, -0.000000000000000, -0.000000000000000, -0.000000000000000, -0.000000000000000, -0.000000000000000, -0.000000000000000, -0.000000000000000, 0.000000000000001, 0.000000000000001, 0.000000000000001, 0.000000000000000, 0.000000000000000, 0.000000000000000, 0.000000000000000, -0.000000000000000, -0.000000000000000, 0.000000000000001, -0.000000000000000, 0.000000000000000, 0.000000000000001, 0.000000000000000, 0.000000000000001, -0.000000000000000, -0.000000000000000, 0.000000000000000, 0.000000000000000, 0.000000000000000, 0.000000000000000, -0.000000000000000, 0.000000000000000, 0.000000000000000, 0.000000000000001, 0.000000000000001, 0.000000000000000, 0.000000000000001, -0.000000000000000, 0.000000000000000, 0.000000000000001, -0.000000000000000, 0.000000000000001, 0.000000000000000, 0.000000000000000, -0.000000000000001, -0.000000000000000, -0.000000000000000, -0.000000000000000, -0.000000000000000, 0.000000000000000, 0.000000000000000, 0.000000000000001, -0.000000000000000, -0.000000000000000, -0.000000000000000, 0.000000000000001, 0.000000000000000, -0.000000000000000, 0.000000000000000, -0.000000000000000, -0.000000000000000, -0.000000000000001, 0.000000000000000, -0.000000000000000, 0.000000000000000, 0.000000000000000, -0.000000000000000, 0.000000000000000, -0.000000000000000, 0.000000000000000, 0.000000000000000, 0.000000000000000, 0.000000000000000, -0.000000000000000, 0.000000000000000, 0.000000000000001, -0.000000000000000, 0.000000000000000, -0.000000000000001, 0.000000000000000, -0.000000000000000, -0.000000000000000, -0.000000000000000, 0.000000000000001, -0.000000000000000, 0.000000000000001, 0.000000000000000, 0.000000000000001, -0.000000000000000, 0.000000000000000, 0.000000000000000, 0.000000000000000, 0.000000000000000, -0.000000000000000, -0.000000000000000, 0.000000000000000, 0.000000000000000, -0.000000000000000, -0.000000000000000, 0.000000000000000, 0.000000000000000, -0.000000000000000, 0.000000000000000, 0.000000000000000, -0.000000000000000, -0.000000000000000, -0.000000000000000, -0.000000000000000, -0.000000000000000, -0.000000000000000, -0.000000000000000, -0.000000000000000, -0.000000000000000, -0.000000000000000, -0.000000000000000, -0.000000000000000, -0.000000000000000, -0.000000000000000, -0.000000000000000, -0.000000000000000, 0.000000000000000, -0.000000000000000, -0.000000000000000, -0.000000000000000, 0.000000000000000, -0.000000000000000, 0.000000000000000, -0.000000000000001, -0.000000000000000, -0.000000000000000, -0.000000000000000, 0.000000000000000, -0.000000000000000, -0.000000000000000, -0.000000000000001, -0.000000000000000, 0.000000000000001, 0.000000000000000, -0.000000000000000, -0.000000000000000, -0.000000000000001, 0.000000000000000, -0.000000000000000, -0.000000000000000, 0.000000000000000, -0.000000000000000, -0.000000000000000, 0.000000000000000, 0.000000000000001, -0.000000000000001, -0.000000000000000, 0.000000000000000, 0.000000000000000, 0.000000000000000, 0.000000000000000, 0.000000000000000, -0.000000000000000, 0.000000000000000, 0.000000000000001, -0.000000000000000, 0.000000000000001, 0.000000000000000, 0.000000000000000, 0.000000000000000, 0.000000000000000, 0.000000000000001, 0.000000000000000, 0.000000000000000, 0.000000000000000, 0.000000000000000, 0.000000000000000, 0.000000000000001, 0.000000000000000, 0.000000000000001, 0.000000000000000, 0.000000000000001, 0.000000000000000, 0.000000000000000, 0.000000000000001, 0.000000000000000, 0.000000000000000, 0.000000000000000, 0.000000000000000, 0.000000000000000, -0.000000000000000, -0.000000000000000, -0.000000000000000, -0.000000000000000, -0.000000000000000, -0.000000000000000, -0.000000000000000, -0.000000000000000, -0.000000000000000, -0.000000000000000, -0.000000000000000, -0.000000000000000, -0.000000000000000, -0.000000000000000, -0.000000000000000, -0.000000000000000, -0.000000000000000, -0.000000000000000, 0.000000000000000, -0.000000000000000, 0.000000000000000, -0.000000000000000, -0.000000000000000, 0.000000000000000, -0.000000000000000, -0.000000000000000, -0.000000000000000, 0.000000000000000, 0.000000000000000, -0.000000000000000, 0.000000000000000, 0.000000000000000, -0.000000000000000, -0.000000000000000, 0.000000000000000, 0.000000000000000, -0.000000000000000, -0.000000000000000, 0.000000000000000, 0.000000000000000, 0.000000000000000, -0.000000000000000, -0.000000000000000, 0.000000000000000, -0.000000000000000, 0.000000000000000, 0.000000000000000, 0.000000000000000, -0.000000000000000, -0.000000000000000, -0.000000000000000, -0.000000000000000, 0.000000000000000, -0.000000000000001, -0.000000000000000, 0.000000000000000, -0.000000000000000, 0.000000000000000, 0.000000000000000, -0.000000000000000, 0.000000000000001, -0.000000000000001, -0.000000000000000, 0.000000000000000, -0.000000000000000, 0.000000000000000, 0.000000000000000, -0.000000000000000, -0.000000000000000, 0.000000000000000, 0.000000000000000, 0.000000000000001, 0.000000000000000, 0.000000000000000, -0.000000000000000, 0.000000000000000, 0.000000000000000, 0.000000000000000, 0.000000000000000, 0.000000000000000, -0.000000000000000, -0.000000000000000, -0.000000000000000, -0.000000000000000, -0.000000000000000, -0.000000000000000, -0.000000000000000, -0.000000000000000, -0.000000000000000, -0.000000000000000, -0.000000000000000, -0.000000000000000, -0.000000000000000, -0.000000000000000, -0.000000000000000, -0.000000000000000, -0.000000000000000, -0.000000000000000, -0.000000000000000, -0.000000000000000, -0.000000000000000, -0.000000000000000, -0.000000000000000, -0.000000000000000, -0.000000000000000, -0.000000000000000, -0.000000000000000, -0.000000000000000, -0.000000000000000, -0.000000000000000, -0.000000000000000, -0.000000000000000, 0.000000000000000, -0.000000000000000, 0.000000000000000, -0.000000000000000, 0.000000000000000, 0.000000000000000, -0.000000000000000, -0.000000000000000, -0.000000000000000, -0.000000000000000, 0.000000000000000, -0.000000000000000, 0.000000000000000, -0.000000000000000, 0.000000000000000, 0.000000000000000, 0.000000000000000, 0.000000000000000, -0.000000000000000, -0.000000000000000, 0.000000000000000, -0.000000000000001, -0.000000000000000, -0.000000000000000, -0.000000000000001, 0.000000000000001, -0.000000000000000, -0.000000000000000, 0.000000000000001, 0.000000000000000, -0.000000000000001, 0.000000000000000, -0.000000000000000, -0.000000000000000, -0.000000000000000, -0.000000000000000, -0.000000000000000, -0.000000000000000, -0.000000000000000, -0.000000000000000, -0.000000000000000, -0.000000000000000, -0.000000000000000, -0.000000000000000, -0.000000000000000, -0.000000000000000, -0.000000000000000, -0.000000000000000, 0.000000000000001, 0.000000000000000, -0.000000000000000, -0.000000000000000, 0.000000000000001, 0.000000000000001, 0.000000000000000, 0.000000000000000, 0.000000000000001, 0.000000000000001, -0.000000000000000, -0.000000000000000, 0.000000000000001, -0.000000000000001, -0.000000000000000, -0.000000000000000, 0.000000000000000, 0.000000000000001, 0.000000000000000, 0.000000000000001, -0.000000000000000, 0.000000000000001, 0.000000000000001, 0.000000000000000, 0.000000000000001, 0.000000000000001, 0.000000000000001, 0.000000000000001, 0.000000000000000, 0.000000000000000, 0.000000000000001, 0.000000000000001, 0.000000000000001, 0.000000000000001, -0.000000000000000, -0.000000000000000, 0.000000000000001, -0.000000000000000, 0.000000000000001, 0.000000000000001, 0.000000000000001, 0.000000000000001, 0.000000000000000, 0.000000000000000, 0.000000000000000, 0.000000000000001, 0.000000000000000, 0.000000000000001, 0.000000000000000, -0.000000000000000, 0.000000000000000, 0.000000000000000, -0.000000000000001, -0.000000000000000, -0.000000000000001, -0.000000000000000, 0.000000000000000, -0.000000000000001, 0.000000000000000, 0.000000000000001, 0.000000000000001, -0.000000000000000, 0.000000000000000, 0.000000000000000, -0.000000000000000, -0.000000000000000, -0.000000000000000, -0.000000000000000, -0.000000000000000, -0.000000000000000, -0.000000000000000, -0.000000000000000, -0.000000000000000, -0.000000000000000, -0.000000000000000, -0.000000000000000, -0.000000000000000, -0.000000000000000, -0.000000000000000, -0.000000000000000, 0.000000000000000, -0.000000000000000, -0.000000000000000, -0.000000000000000, -0.000000000000000, -0.000000000000000, -0.000000000000000, -0.000000000000000, -0.000000000000000, -0.000000000000000, -0.000000000000000, 0.000000000000000, 0.000000000000000, -0.000000000000000, -0.000000000000000, -0.000000000000000, -0.000000000000000, -0.000000000000000, -0.000000000000000, -0.000000000000000, -0.000000000000000, -0.000000000000000, -0.000000000000000, -0.000000000000000, -0.000000000000000, -0.000000000000000, -0.000000000000000, -0.000000000000000, -0.000000000000000, -0.000000000000000, -0.000000000000000, -0.000000000000000, 0.000000000000000, -0.000000000000000, 0.000000000000000, -0.000000000000000, -0.000000000000000, 0.000000000000000, -0.000000000000000, 0.000000000000000, 0.000000000000000, -0.000000000000000, -0.000000000000000, 0.000000000000000, 0.000000000000000, 0.000000000000000, -0.000000000000000, 0.000000000000000, 0.000000000000000, 0.000000000000000, 0.000000000000000, 0.000000000000000, 0.000000000000000, 0.000000000000000, 0.000000000000000, 0.000000000000000, 0.000000000000000, 0.000000000000000, 0.000000000000000, 0.000000000000000, 0.000000000000000, 0.000000000000000, 0.000000000000000, 0.000000000000000, 0.000000000000000, 0.000000000000000, 0.000000000000000, 0.000000000000000, 0.000000000000000, 0.000000000000000, 0.000000000000000, 0.000000000000000, 0.000000000000000, 0.000000000000000, 0.000000000000000, 0.000000000000000, 0.000000000000000, 0.000000000000000, 0.000000000000000, 0.000000000000000, 0.000000000000000, 0.000000000000000, 0.000000000000001, 0.000000000000000, -0.000000000000000, 0.000000000000001, -0.000000000000000, -0.000000000000000, -0.000000000000000, 0.000000000000000, 0.000000000000001, 0.000000000000001, 0.000000000000000, 0.000000000000000, 0.000000000000000, 0.000000000000001, 0.000000000000000, 0.000000000000000, 0.000000000000000, 0.000000000000000, -0.000000000000000, 0.000000000000000, 0.000000000000000, 0.000000000000000, 0.000000000000000, 0.000000000000000, 0.000000000000000, 0.000000000000000, 0.000000000000000, 0.000000000000000, 0.000000000000000, 0.000000000000000, 0.000000000000000, 0.000000000000000, 0.000000000000001, 0.000000000000000, 0.000000000000000, 0.000000000000001, -0.000000000000001, 0.000000000000000, 0.000000000000001, 0.000000000000001, 0.000000000000001, 0.000000000000001, 0.000000000000000, 0.000000000000000, 0.000000000000000, 0.000000000000001, -0.000000000000000, -0.000000000000000, -0.000000000000000, -0.000000000000000, -0.000000000000000, -0.000000000000000, -0.000000000000000, -0.000000000000000, -0.000000000000000, -0.000000000000000, -0.000000000000000, -0.000000000000000, -0.000000000000000, -0.000000000000000, -0.000000000000000, -0.000000000000000, -0.000000000000000, -0.000000000000000, -0.000000000000000, -0.000000000000000, 0.000000000000000, -0.000000000000000, 0.000000000000000, -0.000000000000000, -0.000000000000000, -0.000000000000000, -0.000000000000000, -0.000000000000000, -0.000000000000000, -0.000000000000000, -0.000000000000000, -0.000000000000000, -0.000000000000000, -0.000000000000000, -0.000000000000000, 0.000000000000000, -0.000000000000000, -0.000000000000000, -0.000000000000000, -0.000000000000000, -0.000000000000000, -0.000000000000000, -0.000000000000000, -0.000000000000000, 0.000000000000000, -0.000000000000000, -0.000000000000000, -0.000000000000000, 0.000000000000000, 0.000000000000000, 0.000000000000000, 0.000000000000000, -0.000000000000000, 0.000000000000000, 0.000000000000000, -0.000000000000000, -0.000000000000000, -0.000000000000000, -0.000000000000000, 0.000000000000000, 0.000000000000000, 0.000000000000000, 0.000000000000000, 0.000000000000000, -0.000000000000000, -0.000000000000000, -0.000000000000000, -0.000000000000000, -0.000000000000000, -0.000000000000000, -0.000000000000000, -0.000000000000000, -0.000000000000000, -0.000000000000000, -0.000000000000000, -0.000000000000000, -0.000000000000000, -0.000000000000000, -0.000000000000000, -0.000000000000000, 0.000000000000000, 0.000000000000001, 0.000000000000001, 0.000000000000000, 0.000000000000000, 0.000000000000001, -0.000000000000000, -0.000000000000000, 0.000000000000000, 0.000000000000001, 0.000000000000001, 0.000000000000001, 0.000000000000000, -0.000000000000001, 0.000000000000001, 0.000000000000001, -0.000000000000000, -0.000000000000000, -0.000000000000000, -0.000000000000000, -0.000000000000000, -0.000000000000000, -0.000000000000000, -0.000000000000000, -0.000000000000000, -0.000000000000000, -0.000000000000000, -0.000000000000000, -0.000000000000000, -0.000000000000000, -0.000000000000000, -0.000000000000000, 0.000000000000000, 0.000000000000000, -0.000000000000000, -0.000000000000000, 0.000000000000000, 0.000000000000001, -0.000000000000001, 0.000000000000000, 0.000000000000001, 0.000000000000001, 0.000000000000001, 0.000000000000000, 0.000000000000001, -0.000000000000000, 0.000000000000000, 0.000000000000000, 0.000000000000000, 0.000000000000001, 0.000000000000000, 0.000000000000001, -0.000000000000001, 0.000000000000000, 0.000000000000000, -0.000000000000000, 0.000000000000001, 0.000000000000000, 0.000000000000000, 0.000000000000001, 0.000000000000000, 0.000000000000000, 0.000000000000000, -0.000000000000000, -0.000000000000000, -0.000000000000000, -0.000000000000000, -0.000000000000000, -0.000000000000000, -0.000000000000000, -0.000000000000000, -0.000000000000000, -0.000000000000000, -0.000000000000000, -0.000000000000000, -0.000000000000000, -0.000000000000000, -0.000000000000000, -0.000000000000000, -0.000000000000000, -0.000000000000000, -0.000000000000000, -0.000000000000000, -0.000000000000000, -0.000000000000000, -0.000000000000000, -0.000000000000000, 